/* Generated by Edge Impulse
 *
 * Permission is hereby granted, free of charge, to any person obtaining a copy
 * of this software and associated documentation files (the "Software"), to deal
 * in the Software without restriction, including without limitation the rights
 * to use, copy, modify, merge, publish, distribute, sublicense, and/or sell
 * copies of the Software, and to permit persons to whom the Software is
 * furnished to do so, subject to the following conditions:
 *
 * The above copyright notice and this permission notice shall be included in
 * all copies or substantial portions of the Software.
 *
 * THE SOFTWARE IS PROVIDED "AS IS", WITHOUT WARRANTY OF ANY KIND, EXPRESS OR
 * IMPLIED, INCLUDING BUT NOT LIMITED TO THE WARRANTIES OF MERCHANTABILITY,
 * FITNESS FOR A PARTICULAR PURPOSE AND NONINFRINGEMENT. IN NO EVENT SHALL THE
 * AUTHORS OR COPYRIGHT HOLDERS BE LIABLE FOR ANY CLAIM, DAMAGES OR OTHER
 * LIABILITY, WHETHER IN AN ACTION OF CONTRACT, TORT OR OTHERWISE, ARISING FROM,
 * OUT OF OR IN CONNECTION WITH THE SOFTWARE OR THE USE OR OTHER DEALINGS IN THE
 * SOFTWARE.
 */
// Generated on: 07.06.2023 02:12:20

#include <stdio.h>
#include <stdlib.h>
#include "edge-impulse-sdk/tensorflow/lite/c/builtin_op_data.h"
#include "edge-impulse-sdk/tensorflow/lite/c/common.h"
#include "edge-impulse-sdk/tensorflow/lite/micro/micro_mutable_op_resolver.h"
#include "edge-impulse-sdk/porting/ei_classifier_porting.h"

#if EI_CLASSIFIER_PRINT_STATE
#if defined(__cplusplus) && EI_C_LINKAGE == 1
extern "C" {
    extern void ei_printf(const char *format, ...);
}
#else
extern void ei_printf(const char *format, ...);
#endif
#endif

#if defined __GNUC__
#define ALIGN(X) __attribute__((aligned(X)))
#elif defined _MSC_VER
#define ALIGN(X) __declspec(align(X))
#elif defined __TASKING__
#define ALIGN(X) __align(X)
#endif

#ifndef EI_MAX_SCRATCH_BUFFER_COUNT
#define EI_MAX_SCRATCH_BUFFER_COUNT 4
#endif // EI_MAX_SCRATCH_BUFFER_COUNT

#ifndef EI_MAX_OVERFLOW_BUFFER_COUNT
#define EI_MAX_OVERFLOW_BUFFER_COUNT 10
#endif // EI_MAX_OVERFLOW_BUFFER_COUNT

using namespace tflite;
using namespace tflite::ops;
using namespace tflite::ops::micro;

namespace {

#if defined(EI_CLASSIFIER_ALLOCATION_STATIC_HIMAX) || defined(EI_CLASSIFIER_ALLOCATION_STATIC_HIMAX_GNU)
constexpr int kTensorArenaSize = 1600;
#else
constexpr int kTensorArenaSize = 576;
#endif

#if defined(EI_CLASSIFIER_ALLOCATION_STATIC)
uint8_t tensor_arena[kTensorArenaSize] ALIGN(16);
#elif defined(EI_CLASSIFIER_ALLOCATION_STATIC_HIMAX)
#pragma Bss(".tensor_arena")
uint8_t tensor_arena[kTensorArenaSize] ALIGN(16);
#pragma Bss()
#elif defined(EI_CLASSIFIER_ALLOCATION_STATIC_HIMAX_GNU)
uint8_t tensor_arena[kTensorArenaSize] ALIGN(16) __attribute__((section(".tensor_arena")));
#else
#define EI_CLASSIFIER_ALLOCATION_HEAP 1
uint8_t* tensor_arena = NULL;
#endif

static uint8_t* tensor_boundary;
static uint8_t* current_location;

template <int SZ, class T> struct TfArray {
  int sz; T elem[SZ];
};
enum used_operators_e {
  OP_FULLY_CONNECTED, OP_SOFTMAX,  OP_LAST
};
struct TensorInfo_t { // subset of TfLiteTensor used for initialization from constant memory
  TfLiteAllocationType allocation_type;
  TfLiteType type;
  void* data;
  TfLiteIntArray* dims;
  size_t bytes;
  TfLiteQuantization quantization;
};
struct NodeInfo_t { // subset of TfLiteNode used for initialization from constant memory
  struct TfLiteIntArray* inputs;
  struct TfLiteIntArray* outputs;
  void* builtin_data;
  used_operators_e used_op_index;
};

typedef struct {
  TfLiteTensor tensor;
  int16_t index;
} TfLiteTensorWithIndex;

typedef struct {
  TfLiteEvalTensor tensor;
  int16_t index;
} TfLiteEvalTensorWithIndex;

TfLiteContext ctx{};
static const int MAX_TFL_TENSOR_COUNT = 4;
static TfLiteTensorWithIndex tflTensors[MAX_TFL_TENSOR_COUNT];
static const int MAX_TFL_EVAL_COUNT = 4;
static TfLiteEvalTensorWithIndex tflEvalTensors[MAX_TFL_EVAL_COUNT];
TfLiteRegistration registrations[OP_LAST];
TfLiteNode tflNodes[4];

const TfArray<2, int> tensor_dimension0 = { 2, { 1,2 } };
const TfArray<1, float> quant0_scale = { 1, { 0.003411764744669199, } };
const TfArray<1, int> quant0_zero = { 1, { -128 } };
const TfLiteAffineQuantization quant0 = { (TfLiteFloatArray*)&quant0_scale, (TfLiteIntArray*)&quant0_zero, 0 };
const ALIGN(16) int8_t tensor_data1[128*2] = { 
  -95, -41, 
  18, -10, 
  -1, 41, 
  -125, 33, 
  1, 34, 
  64, 63, 
  -95, 65, 
  -42, -77, 
  40, -13, 
  -6, 21, 
  -102, -3, 
  106, 2, 
  48, -93, 
  14, 104, 
  -76, -30, 
  -79, 20, 
  -96, -50, 
  -57, 42, 
  -86, -29, 
  -37, -119, 
  -89, -25, 
  29, -48, 
  -126, -4, 
  -34, 89, 
  71, -56, 
  -72, -25, 
  115, 79, 
  124, -63, 
  52, -61, 
  25, 91, 
  -106, -87, 
  70, -110, 
  87, -102, 
  31, -103, 
  -127, -80, 
  123, 20, 
  110, 24, 
  6, -3, 
  -27, -60, 
  59, 103, 
  -77, 53, 
  2, 65, 
  -101, 18, 
  -101, 99, 
  -77, -18, 
  -25, 38, 
  -15, 13, 
  -86, -18, 
  47, -16, 
  12, -73, 
  -121, -35, 
  -6, 113, 
  22, 19, 
  -37, 84, 
  127, 13, 
  -39, 110, 
  76, 39, 
  -121, -106, 
  102, 68, 
  88, -99, 
  15, -101, 
  -49, -23, 
  53, 86, 
  53, 120, 
  80, 118, 
  -22, 95, 
  -46, -47, 
  -30, 102, 
  -122, 40, 
  63, 11, 
  -96, -32, 
  -23, 115, 
  -73, 115, 
  85, 68, 
  -61, -43, 
  44, 0, 
  22, 42, 
  -109, -63, 
  111, -106, 
  61, 81, 
  -21, -126, 
  27, 5, 
  0, 10, 
  34, -28, 
  40, -9, 
  -3, 123, 
  -49, -108, 
  -105, -75, 
  80, 5, 
  -111, 11, 
  120, -108, 
  13, -31, 
  98, -64, 
  17, -60, 
  60, -31, 
  -31, -111, 
  -6, 4, 
  112, -79, 
  77, -96, 
  27, -69, 
  10, 120, 
  120, -42, 
  29, 109, 
  37, 105, 
  114, -62, 
  48, 111, 
  38, -22, 
  118, 60, 
  59, -103, 
  -6, 55, 
  -43, -86, 
  124, 96, 
  -41, -87, 
  -31, -27, 
  -44, -94, 
  111, 20, 
  -1, -8, 
  -54, 117, 
  48, -127, 
  -4, -92, 
  -108, 9, 
  80, -62, 
  -122, 24, 
  -89, 16, 
  -98, -92, 
  31, 61, 
  37, -105, 
  19, -51, 
};
const TfArray<2, int> tensor_dimension1 = { 2, { 128,2 } };
const TfArray<1, float> quant1_scale = { 1, { 0.0016640815883874893, } };
const TfArray<1, int> quant1_zero = { 1, { 0 } };
const TfLiteAffineQuantization quant1 = { (TfLiteFloatArray*)&quant1_scale, (TfLiteIntArray*)&quant1_zero, 0 };
const ALIGN(16) int32_t tensor_data2[128] = { 0, 147, -123, 0, -63, 36, 0, 0, 150, 51, 0, 53, 0, -82, 0, 0, 0, -208, 0, 0, 0, 0, 0, -27, -205, 0, -18, 67, 0, 22, 0, 0, 0, 0, 0, 61, 53, -158, 0, 250, 0, 146, 0, 52, 0, -157, 233, 0, -79, 0, 0, -48, 134, 41, 26, 162, 54, 0, -51, 0, 0, 0, -68, 84, -99, -243, 0, 19, 0, -31, 0, -136, -168, 19, 0, 30, 64, 0, 0, 69, 0, 153, -28, 0, -91, -142, 0, 0, 118, 0, 0, 0, 14, 0, 7, 0, -193, -243, 0, 0, -122, -232, 132, 8, 92, -51, 11, 224, 0, 13, 0, -259, 0, 0, 0, -26, 0, -50, 0, 0, 0, -253, 0, 0, 0, -102, 0, 0, };
const TfArray<1, int> tensor_dimension2 = { 1, { 128 } };
const TfArray<1, float> quant2_scale = { 1, { 5.677454737451626e-06, } };
const TfArray<1, int> quant2_zero = { 1, { 0 } };
const TfLiteAffineQuantization quant2 = { (TfLiteFloatArray*)&quant2_scale, (TfLiteIntArray*)&quant2_zero, 0 };
const ALIGN(16) int8_t tensor_data3[256*128] = { 
  -77, 74, 6, 16, -113, 52, 75, -28, 29, 103, 50, -123, -4, 19, -28, 12, -59, -39, 3, -125, 46, -94, -47, 87, -1, -3, 45, -96, -14, -113, -29, 79, -25, 72, 32, 80, -85, -24, -108, 18, 69, 107, 71, 61, -50, -27, 109, 111, -57, -22, 51, -93, -122, 7, -54, 41, 121, -32, -93, -8, 113, 122, 90, -93, 55, -18, -40, -19, -117, -32, -29, -12, -2, 59, 49, 70, -12, 62, -115, -10, -86, 113, 64, 50, -11, -43, 21, 72, 67, -15, -99, -12, 34, 119, 32, -82, 119, 83, -6, -69, 67, 50, 23, -1, 45, 111, -83, -24, -8, -94, 0, 94, -74, -65, -59, -94, -123, -72, -91, -27, -106, 54, -43, -112, 75, 88, 117, -20, 
  -79, 71, -65, 112, -68, 108, -106, -1, -122, 25, -16, 43, 1, 72, 124, -112, -39, 4, 118, 47, 43, 125, -96, -74, -15, 68, 103, 116, 80, 14, 113, 45, 27, -101, 121, -94, 103, -59, 70, -104, 92, -118, -82, 39, -113, 89, -120, -80, -52, -74, -90, -78, -124, -9, -68, 25, -28, 86, -40, -34, 64, -15, -26, -73, -20, -24, -64, -47, 52, 12, -54, -115, -20, 59, -2, -107, -13, -111, -87, 18, -108, 93, -84, -45, 60, 53, -84, 59, -48, -124, -62, -12, 76, -57, -94, 83, 109, 124, 36, -31, 13, -32, 123, -118, -15, 75, -111, 85, 95, -116, 30, 33, 61, 120, -33, 65, 71, 93, -63, 120, 82, -90, 105, -15, 118, -16, 72, -56, 
  -95, -33, 79, 12, 32, 68, -47, 77, -35, 56, 109, -15, -55, -38, 14, 47, 124, 74, 26, 36, -117, 5, -2, -87, 53, 9, -56, 32, 99, 31, 103, 125, -87, 11, -25, -106, -79, 33, -92, 41, 59, 44, 79, -110, 73, -64, 121, -109, -118, -31, -89, -39, -111, 17, -9, -39, 94, -110, -47, -45, -78, 53, 38, -121, 3, 89, -20, -99, -9, -2, -104, 98, 67, 78, 4, 45, -79, -18, 31, 2, -106, -22, 58, 27, 4, -103, 16, 3, 1, 68, 119, 20, 75, 119, 56, 23, -124, -120, 40, -109, 14, 122, 70, 86, 56, -47, 49, 79, 118, 85, 57, -113, 27, 79, -76, -28, 1, 111, 89, 86, 28, 94, 44, 91, -8, -76, -24, 101, 
  -80, 2, 18, -123, -73, -57, 14, -29, -48, 101, 119, -123, 4, 38, 11, 2, 69, -23, 26, -77, 123, 28, -61, 113, -64, 66, 54, -50, -83, 75, 78, -117, -86, -53, -38, 108, -41, -61, 124, 25, -116, -10, 97, 2, -18, -67, -31, 70, 87, 100, -122, 39, -2, 0, 97, 35, 34, 106, -68, 87, -59, -81, 29, 119, -123, 120, -117, 38, 92, -14, -116, 74, 116, -42, -34, 121, -40, -114, -30, 91, 41, -73, -112, -26, 63, -72, -34, -55, 87, -61, -59, -83, -121, -82, 82, -50, 30, -47, -16, 65, -72, -7, 69, 88, -29, 13, 100, -75, -24, 7, -41, -56, 93, 76, -9, -25, 41, -5, -30, -125, -3, 6, -105, 96, 57, 72, -15, -37, 
  18, 110, -85, 0, -28, -27, -112, -19, -26, -63, 98, -74, 40, 59, -80, 78, 108, -24, 62, 99, -76, 38, -94, -88, 60, -68, -12, -86, -98, 1, -16, -121, 42, 53, -87, 1, -89, 85, 42, -89, 123, 118, 125, 96, -16, 104, -9, 78, 73, 39, 50, -3, 54, 92, -86, -99, -22, -12, -72, -2, -89, 124, 69, -93, 53, 101, -20, -20, 25, -16, -25, 34, 114, -35, -55, -71, -59, 95, -79, 88, -30, -43, -123, 49, 93, 50, 106, 110, -32, 91, -122, -68, -99, -88, 4, 78, -50, 8, -68, 50, 117, 117, 109, -83, -69, -59, 80, -2, 10, -111, -94, 83, -101, -41, 46, 3, 10, -14, -67, -91, 46, 93, 101, 114, -100, 7, -121, 30, 
  73, -37, -15, -77, -102, -27, 34, -41, -9, -104, -113, -16, -106, 109, -7, 102, 44, 67, 28, -112, -125, -21, 46, 6, -34, 69, -79, -60, 4, 92, 67, -9, 36, 36, 107, -64, 32, -5, -106, 65, 4, -87, -31, -28, 64, -111, -8, -115, 7, -30, -14, -67, -11, 112, -3, -28, -126, 9, 121, 0, -20, 8, 86, -120, 14, -37, 48, -30, -11, -21, 88, 117, -125, 37, -53, -55, 50, 106, -101, 7, -32, 60, 10, -17, -81, -77, 83, 11, -60, -113, 54, 4, -102, 102, 105, -36, 53, 53, -19, 122, 34, 48, 83, 32, 63, -21, 34, 104, -125, 27, -69, 44, -23, -23, 94, -40, 109, 59, -110, 27, -26, -92, -63, -15, -25, -125, -54, -60, 
  96, -64, 115, -10, 34, -77, -31, -83, 43, -107, 27, 21, 83, -44, -5, -58, 104, -40, 84, 82, 10, 18, 115, 31, 25, 55, 21, -37, -21, -94, -76, -35, -20, -86, 112, 103, 66, 16, -11, 113, 73, -57, 21, 64, 42, -121, 51, -14, -103, -114, 112, 5, 6, 10, -68, 90, 11, 27, 122, -113, -30, -35, 22, 38, -122, -122, 101, -37, 118, -38, 107, -13, 43, 33, -11, 82, -41, -60, 84, 89, -83, 10, 12, -107, 120, -49, 21, -18, -44, -94, -102, 116, 36, 0, 121, -110, 108, 23, -108, -112, -64, 73, 38, 18, -50, -84, 91, -28, 49, -117, -57, 36, 45, -99, -1, 89, 50, -31, -27, -2, -32, 113, 121, -109, 54, -90, 23, 124, 
  -66, -113, -42, 78, 64, -25, 18, -10, -78, 98, 90, 62, 72, -103, -87, -90, -65, 52, 51, 42, -48, 12, 22, -117, 48, 29, 99, 19, 124, 19, -52, -54, -76, -117, -29, 109, -39, 55, 3, -110, -42, 89, 109, -82, -91, -44, 78, -37, -52, -73, 11, -88, 34, 112, -4, -61, 93, -15, -7, -96, 25, -41, -94, 111, 70, -45, -88, 35, -4, -7, -104, 69, 116, -2, -100, -60, 34, 42, -123, -107, 60, -97, -98, -12, -18, -77, -39, 26, -93, -78, 40, 44, 111, -49, -108, -125, -101, 94, -14, -126, 117, 13, 73, 48, 76, -46, -53, -109, 46, 39, 48, 125, -66, -96, -105, -37, -61, 1, 116, -113, 1, -54, 66, 109, 42, -23, -20, 71, 
  -83, 4, 96, 2, -41, 80, -7, -71, 84, -70, 119, -121, 111, 120, -6, 110, 109, -27, 107, 53, 91, -81, 92, -83, 24, 42, 73, 121, -9, 59, 66, -71, -88, -105, 89, -85, 26, -51, -44, -34, 118, 80, -88, 56, -96, -59, 125, 71, 61, 107, -83, 92, -34, -84, 120, -69, 117, 122, -14, 81, -80, 78, 42, 69, 47, 47, -110, -36, 124, 17, -2, -100, 114, 18, -45, -58, -68, 111, 23, 5, 32, -113, -97, -59, 79, 100, -121, 95, -108, 37, -25, -117, -108, 71, 6, 111, 108, 10, -81, 48, -67, 84, -27, -32, 82, 0, 102, -64, 52, -78, 75, 100, -97, 29, -24, 112, 75, -64, -54, -20, -73, 64, 33, -91, -24, 74, -124, 94, 
  -33, -99, 15, 4, 101, -29, -21, -115, 110, -60, -24, 108, 42, 119, 126, -99, 120, -6, 15, 96, 102, 64, -59, 33, -101, -123, -107, 40, 80, 41, -15, -17, 0, -56, 85, -16, 55, -94, -107, 126, 60, 120, -97, -106, -43, -49, -14, 104, 126, -91, 54, -83, -88, 53, 30, 86, 81, 10, -72, -71, 123, -105, 41, -16, 34, 57, -38, 33, -20, -61, -98, -8, -51, 36, -32, 73, 74, -63, 88, 52, -11, -112, 96, 35, 64, 94, 88, -5, 59, -32, 97, 80, 12, 10, 105, 31, 109, -103, 12, -26, 120, 94, -124, -25, -22, -69, 75, -3, -51, 81, -112, 15, -100, -89, -26, 26, 30, -5, 78, 115, 100, -27, 113, 117, 77, -112, -107, -4, 
  -4, 5, 33, -22, 43, 122, 43, 102, 117, -58, -19, -87, 94, 59, 13, -4, 92, 75, -7, 10, -60, 69, 25, -43, 24, -51, -115, 103, 67, 40, 124, 42, -5, 89, -27, -15, 109, 86, 108, 113, -37, -31, 32, 20, 92, -70, 123, -48, -67, -68, 88, -97, 95, 42, -90, -8, -117, 24, 62, -14, -73, -11, -43, -126, 48, -28, 45, -1, -27, -16, 53, -94, 110, 0, -68, -29, 98, 125, -119, -123, -48, 20, -37, 61, -51, -23, -11, 122, 80, 56, -121, 110, -48, -120, 35, -106, 37, -31, 92, 25, -25, 42, -37, 8, -99, 38, 72, 125, 39, 53, -103, 33, 5, -104, 109, -48, 48, 13, -13, -82, -20, 89, 110, -11, -52, 52, 7, -42, 
  18, 55, -71, -121, -99, 55, 112, 15, 67, 28, -106, -102, -50, 124, 53, 49, -58, 43, -10, 97, -10, 22, -35, 124, 71, 116, -49, -102, 103, -93, 31, -73, -29, -1, -83, 49, -94, 20, -12, -110, 117, -33, -86, 83, 33, 21, 77, -96, -49, 37, 26, 0, 68, 33, -64, -54, -32, -70, -94, 34, -87, 121, 26, -44, -19, -83, -96, 105, 24, -63, -36, -20, 100, 64, 34, 3, 3, 86, 25, 51, -16, 20, 68, 27, 27, -2, -103, -59, -27, -79, -88, -104, -27, 126, -53, -52, 77, -69, -46, 27, 62, 101, 63, 62, 46, -36, -23, -43, 114, 107, -47, 50, -113, 99, -105, 2, -38, -81, 100, 110, -3, 106, -68, -107, 108, 126, -5, -20, 
  84, 1, 65, -46, -53, 40, -52, 88, -30, -46, 78, 121, 23, 87, 39, -88, 15, 5, -56, -9, -111, -88, -115, 66, -112, 66, 121, -94, -59, -126, -47, 47, 108, 122, -26, 38, 115, 111, -110, -64, 91, -21, -107, -46, -96, -32, 57, -21, 47, 53, -108, 4, -25, 45, 94, -35, 16, 47, -37, 17, -61, -112, -50, 49, 124, 66, -16, 62, -115, 53, 88, 51, 72, 110, 100, -38, -95, 29, 9, -48, -104, 5, 125, 125, 74, 41, 63, 70, 22, -69, -125, -124, 11, 98, 46, -24, -33, -104, 42, -85, 11, -48, 81, 24, 108, -56, 100, -91, -115, 54, -69, -87, -41, -73, -53, 100, 37, -91, -103, -104, 1, -77, 80, -104, -111, -72, 40, -118, 
  -22, -42, -57, 41, -111, -97, 67, 63, 30, -100, -25, -1, 106, 74, 122, -21, -24, 24, -119, -113, 122, 57, 91, 69, 23, -54, -82, 21, -65, -121, 1, 104, 119, -104, 18, -66, 2, 63, 89, -25, -21, 42, 101, -104, -93, -53, 102, 69, 108, -106, -87, -54, -30, 31, 113, 11, -73, -20, -34, 33, -125, -59, -77, -61, 48, -14, 41, 87, -69, -50, -57, -36, -122, -106, -63, -108, -93, 3, -52, -7, -39, 50, -115, 64, 12, -63, 26, 70, 119, 57, -88, -25, 64, -120, 34, -90, 25, -79, 114, 56, -21, -111, -25, -120, 11, -125, -70, 12, -71, -115, -82, -120, -85, -119, -120, -42, 20, 114, -71, 39, -49, -69, -88, -33, 28, -88, 101, -58, 
  8, -60, -105, 62, 73, 90, 76, -103, -125, 52, -101, 12, 14, 31, -123, 41, -46, -89, -65, 21, -90, -61, -121, -23, -127, 19, 75, -1, -105, -21, 21, 49, -19, -114, -87, -70, 16, 63, -54, -50, 25, -38, 103, -92, -44, 34, -68, 93, -20, 88, 92, -79, 97, 92, -80, -110, 24, -14, 23, 49, -95, -51, 20, -68, 32, 106, 107, -91, 7, 78, 43, 44, 30, 88, 9, 110, 7, -21, -109, 97, -84, 61, 67, -48, -99, 110, -5, -46, -38, 126, 43, -49, 53, 54, -23, 105, 97, 13, -18, 47, -19, -48, -101, -119, -92, 81, 18, -81, -89, 124, -6, 27, -108, 93, 48, 94, 112, 44, -122, 87, 83, 57, -109, 54, -58, -125, 10, -122, 
  98, 86, 5, -93, 70, -116, -83, 81, 39, -100, -81, -25, 111, 72, 85, -94, 109, 113, 118, 112, -108, 25, -70, -17, -42, -100, -46, 116, 56, 71, -77, 33, 27, 96, 105, -13, 107, -125, -6, -115, 117, 109, -66, 68, 47, -107, 55, 91, 67, 101, 85, 100, -104, 2, 1, 108, 111, 82, 71, 58, -107, 2, 125, -63, 16, 31, 125, -42, -8, 98, 8, 57, -111, -81, -3, 89, 12, 2, -73, 36, 26, 39, 12, -19, -111, 85, -67, -18, 24, 104, -19, 67, 1, -105, 115, -52, -21, -108, 60, -27, 82, -90, -75, -11, 34, -51, 35, -29, -8, -45, -71, -89, 57, 86, -32, 61, -19, 81, -38, -69, -33, 115, -64, -14, 123, 27, -44, -39, 
  -37, -76, 9, 0, -4, -78, -69, 91, -122, -78, 11, 9, -31, -22, -89, -34, 31, -33, 52, -96, -67, -86, -12, -21, -125, -46, -15, 65, -66, -67, -91, -115, -36, -102, -96, -57, 41, -7, 40, -71, -10, -85, -114, 113, 97, 27, 34, 36, 51, 4, 94, 27, 83, 18, -119, -46, -114, 68, 93, 52, -96, 15, 3, 10, -19, 55, -47, -53, -114, -93, -84, 90, -86, -69, -11, 47, 123, 69, -20, -126, -63, -110, -59, -5, 87, 34, -3, 85, -17, 8, 42, 87, -111, 81, -7, 51, -51, -86, -104, -108, -46, 30, -109, 121, 11, -71, 92, 113, 82, 12, 32, 114, 31, 107, -111, 46, -104, -114, -63, -37, -101, 84, 21, -69, -115, -31, -38, -14, 
  109, 106, 71, -15, 40, 112, 15, -51, 10, -109, -85, -64, 28, -11, -63, -90, -83, 11, -125, 55, 5, -119, -94, -84, 89, -120, -61, 1, 81, -3, -27, -37, -22, -105, 35, 1, 22, -103, 90, 35, 8, 87, 11, -65, -13, -16, -47, 65, 62, -9, -56, 28, 4, 58, 83, 105, -2, 1, 109, -35, 6, 31, 82, -98, -8, -68, 110, -93, 50, 41, -97, -51, 60, 21, -125, 118, -110, -52, 45, 81, -45, 12, -2, -103, -11, 24, -40, 52, 114, 109, 47, -110, 124, -46, -111, -33, 35, -106, -108, -113, 63, 119, 123, -62, -55, 15, 91, -104, 95, -27, -60, 36, -104, 51, -119, -11, 42, 84, 29, 49, 22, -119, 115, -85, 31, 25, 7, -117, 
  79, -96, -39, 59, 116, 57, 94, -76, 42, -35, -87, -25, 100, 107, -39, 58, -16, 89, -117, -25, -87, -90, 111, -67, -65, -125, 1, -75, 45, -2, -36, -75, 65, -15, -93, -6, 56, 52, -79, -61, 120, -26, -16, 99, 49, 21, 62, -67, -96, -19, 98, -39, 56, 39, 65, -6, -115, -27, 61, 72, 42, 6, 29, 122, -25, -125, 118, 55, 50, 80, 94, -20, 123, 68, -10, 85, 62, 58, 51, -41, 79, -95, 63, -93, 53, 69, -56, -97, 47, 96, -5, -33, -121, -39, 48, -18, -106, 87, 84, -57, 96, -122, -38, -14, -8, 75, -19, 105, 109, -50, 72, 16, -108, 5, -28, -28, -71, 43, -45, 74, 105, -32, -119, -125, -7, -42, 82, -22, 
  39, -113, 108, -105, 47, -98, -92, -29, 94, 14, 75, -84, 15, 119, -85, -56, -30, -122, -53, -32, 89, -41, -86, 80, -66, 9, -16, -69, -37, -100, 104, 4, -24, 20, -76, -48, -86, 77, 9, -107, 17, -82, 7, -31, -37, 27, -59, -63, 37, -89, -118, 20, 36, 83, -76, -37, 88, 87, 81, -5, 3, 31, -120, -82, 61, 9, -115, 60, 103, -126, -61, -113, 24, -16, -26, -8, -60, -7, 14, 95, -69, 105, -20, 114, 125, -23, -6, 37, -38, 116, 90, -84, -41, 67, 3, -37, 101, 105, -28, 109, 124, -80, 14, -6, -21, -83, 58, 5, 98, -104, 112, 117, -92, -1, -117, 122, -37, 85, 65, 107, 43, 70, 84, -53, -107, -123, 41, 21, 
  35, -102, -57, -46, 92, 28, -17, 93, 97, 118, -100, -70, 49, 16, -53, 97, -30, 90, -3, -15, 6, -116, 107, -21, -43, -97, -16, -49, 113, -58, -49, -97, 111, -1, -91, -115, 104, 72, 124, -92, 77, -126, -75, -82, -101, 105, 31, 11, -8, -78, 73, -107, 11, 109, -40, 43, -95, -77, 1, 35, -50, 76, -23, -84, -48, 98, -39, -7, -84, -15, 122, -96, 39, -77, 67, -83, -113, 52, -4, 4, 12, -22, 91, -65, -23, -12, -125, -115, -94, 109, 104, 43, 41, -71, -115, -96, -47, -94, -105, -37, -9, -6, -86, 63, -35, -85, -26, -125, 33, 124, 85, 87, 23, -54, -20, -31, -79, -62, -46, 80, 103, 54, -80, -119, -88, 5, -26, -78, 
  -61, 6, -16, -121, 4, 77, -84, 119, -89, 61, -104, -65, -106, -34, -87, -4, -12, -49, 56, -21, -29, -73, -9, -41, 100, -50, -53, -115, -54, -55, 0, -14, 121, 110, 39, -122, 32, -29, -19, 87, 98, 116, 103, -56, 12, -47, 26, 50, -94, -1, -23, -42, 45, -77, 92, 120, -60, 91, -18, 101, -100, 83, 35, -73, -126, 63, -92, -72, 46, -109, -5, -105, 2, 41, 79, -115, 17, 124, 33, 41, -7, -65, 62, 15, 54, 53, -17, 77, -13, 59, 99, 69, -10, -119, -2, 38, 41, 22, -15, 32, 92, 79, -93, 25, 66, 50, 82, 88, -40, 30, -53, -12, -108, -63, -56, -72, -112, 126, -31, -35, 42, 119, 8, 19, -82, -125, -81, -115, 
  29, 95, -15, 5, 25, -62, -21, 39, 73, -78, -97, 74, 34, 88, 58, 3, 110, 121, 9, 31, -27, 77, 86, -126, 117, 94, 58, 56, -59, 112, -52, -106, -104, 55, -20, 26, -5, -31, -120, 0, 96, -68, -11, 14, 97, -20, -36, -57, 27, 100, 81, -20, 109, 66, -2, 13, 18, 15, -35, 96, -71, 33, 48, -125, 109, -48, 71, -102, -110, -108, -20, 50, 114, -63, 64, 25, 119, 80, 125, 33, -123, -9, -45, -8, 40, -82, 67, -48, 38, -37, -46, 48, 101, 100, -90, -9, 114, 84, 4, -26, 18, -93, -94, 125, -50, -98, 0, -116, 41, 81, -124, -94, -80, 16, 71, -104, 89, 114, 113, -31, 38, -27, 73, -63, -37, -85, -57, 40, 
  -74, -106, 83, 99, 14, -16, 93, -65, -79, 121, 38, 31, 52, -30, 4, 36, -72, 50, 124, -83, -36, 38, 106, 93, 110, -55, -124, 63, 91, -9, 56, 90, 84, -109, 105, 40, 19, -51, 23, 9, -99, 112, 110, 121, 47, -84, 84, 58, 67, 18, 25, -9, 77, 73, -100, 105, 59, 104, 39, -110, 81, -44, 46, -67, 16, -37, -42, 105, -52, 27, -72, 14, 88, -49, -79, -11, 7, 73, 48, -53, 92, 73, 104, -75, 14, 80, -58, -19, -90, 63, 125, -16, 87, 95, -35, 3, -113, -124, 30, 46, 72, 65, 73, -95, -94, -31, 123, -111, -124, 11, -7, -78, 20, 98, -12, -70, -45, -95, -47, -33, 48, -72, -53, 19, -77, 24, 94, -6, 
  -65, -93, -59, -15, -9, -69, 51, -16, 4, -100, 38, -20, -65, -117, 87, -82, -91, 2, 98, -85, 73, -102, 80, 77, 103, -104, 49, 14, -99, -102, 64, 51, 76, 89, 65, 98, -65, 17, -119, -53, -114, 111, -1, -100, 75, -81, -89, -18, -107, -32, 17, 124, 106, 3, -81, -31, 43, -101, -12, -40, 11, -62, 79, 107, -75, 13, -90, 94, -100, 81, 5, 32, -21, -44, 78, -80, -98, 34, -16, -107, 108, 31, 114, 92, -67, 59, 37, 24, 116, 72, 119, -66, -59, -94, -6, 62, -15, 54, 80, -43, 73, -34, -7, 57, 11, 67, -67, 19, 113, 83, 46, -77, 60, 33, 23, 92, -50, -32, -10, -53, 62, 80, 94, -56, 43, 32, -18, 29, 
  -96, -3, 65, 7, -122, 124, 78, 66, -24, -74, 47, -92, 27, 86, -39, 34, -54, 103, -30, -42, 85, -85, 100, 64, -54, -113, 17, -120, -96, -48, -125, 2, 6, -113, 19, 44, 46, -26, 21, -35, -7, 114, 41, 10, -95, -99, 104, 52, -124, 83, -117, -15, 59, -18, 111, 50, -9, -80, -65, -110, -50, 98, 0, 57, 97, 39, 87, 90, -58, -101, 99, -57, 12, -70, 73, 110, 15, 24, 41, -79, -96, 83, -47, -41, 126, -52, -49, 82, 76, -51, 100, 75, -47, 5, 70, -27, 40, -62, 40, -70, 91, 85, 98, -23, -67, 101, 5, 53, -12, 127, -4, -49, -105, -33, 90, 78, 18, -31, -123, -111, -62, 59, -1, -24, -55, -120, -29, -75, 
  14, -2, -123, -67, 31, -6, -21, -106, -78, 54, -39, -61, -20, -88, -10, -24, 8, -125, 86, -7, -108, -104, 37, -23, 17, -54, -6, 111, -108, -68, -83, 52, -6, 29, -26, 7, -10, 34, -73, -96, -23, 72, -31, 61, 1, -93, 99, -113, -57, -47, 96, -44, 22, 46, -122, 12, -105, 42, -32, 101, -60, -81, -40, -24, 20, 104, 76, -13, 12, -97, 96, -7, 47, 60, 44, 42, -70, 65, -44, 109, -11, 81, 35, -13, -116, -52, -65, 63, 90, -51, -2, -60, -11, 118, -104, -125, 84, 126, 93, 94, 14, 101, 41, 35, 48, 94, -65, -82, -29, 57, 68, -6, 73, -31, 104, -80, 72, -72, -61, 42, 59, 120, 43, 93, -80, -104, 111, -24, 
  -67, 33, -58, -126, 15, -37, 56, -96, -39, -122, -35, -107, -24, 60, -10, 15, 73, -84, -43, 92, 56, -12, -86, -92, 98, -51, 90, -12, -57, 89, 80, -9, -4, 40, 73, 9, -5, -110, 73, -118, 81, -4, -28, -123, -12, 61, 85, 107, 16, -72, -73, -15, 45, 61, 5, 102, -111, -70, 104, 44, -90, -37, -96, 46, 33, 106, -58, 75, 60, 76, -74, -117, 100, 30, 99, 45, 55, -9, 48, 67, -79, -70, 26, -72, 35, 19, 118, -67, 1, 33, 56, -41, 87, 60, 62, 27, 26, 29, -61, 103, 26, -86, 37, 124, 34, -94, -111, 59, 76, -84, 106, 124, -43, -32, -93, -37, -68, 12, -76, 54, 113, 123, -46, 54, 102, -119, 34, -16, 
  9, 46, -34, -83, 62, 40, 101, 57, 123, -22, 79, -89, -41, 92, 53, 116, -64, -97, 48, -54, -73, -32, 77, 9, 81, -90, -76, -92, -4, -3, 64, 36, 121, 20, 5, 94, -10, 21, 48, -50, -111, -108, 9, -14, 40, -45, 63, 99, -20, 95, 82, 46, -39, 111, -115, 74, 114, -126, -42, -123, 56, -48, -44, -72, -24, -114, 37, -93, -32, 113, 20, -81, 74, 125, 119, 6, -108, -23, 120, 101, -94, 57, -60, -50, 16, 14, -61, 18, -10, 93, 21, 80, -119, -35, 99, 120, -22, 70, 19, 25, 47, 59, -44, -119, 80, -121, 41, -61, -48, 125, -58, -102, 107, -95, 10, -80, 38, -68, -48, -80, -36, 122, 120, 47, 117, -87, 73, 121, 
  26, -114, 52, 32, 15, -94, -59, -118, 42, 105, -52, 115, -57, 108, -106, 10, -125, 119, 87, 5, 104, 119, -70, -83, 6, -57, 11, -108, -84, 55, -106, 82, -125, 106, 37, 37, -68, 25, -88, 91, -28, 104, 84, -117, -82, -46, 18, 124, -106, -53, 13, 113, 50, 10, 71, 72, 77, 106, -48, 32, 27, 78, 83, 5, 56, 13, 1, 122, -72, -93, -99, 66, 29, 53, -113, -73, 4, -105, -7, -106, 10, 65, -16, -115, -41, 53, -13, -87, 71, 59, 39, -91, -92, -20, 83, -63, 74, 51, -88, 14, -37, 70, 110, 91, 49, -22, 104, -80, 10, -85, -51, -102, 125, 101, -27, -16, 112, 107, -89, -21, -19, 5, -97, 110, -66, 119, -77, 115, 
  21, 100, 106, 34, 14, -74, 91, 95, 70, -119, -106, 43, -47, -26, 18, 86, 26, -56, 68, 110, 121, -26, 126, -16, 73, -72, 3, 82, -39, 106, -97, -33, -38, 106, 55, -85, -80, -94, -94, 56, -6, -105, -118, -98, 37, 47, 3, -5, 73, -81, -68, -58, -125, -63, -17, 52, 6, -71, -111, -94, -126, 98, 56, -59, -100, 105, 103, -18, 90, 78, 106, 45, 39, 104, 74, 97, 50, 94, 109, -25, -99, -77, 92, -97, 3, 49, 112, -113, -25, -100, -86, 92, -47, -53, 50, 120, 48, -9, 37, 103, -94, 66, -30, 91, 68, 107, -56, 91, 106, -60, -21, -74, 34, -54, 106, -52, 32, 116, 115, 46, 55, -19, 71, 72, 119, -56, -123, -103, 
  47, -82, 47, -26, -29, 48, -12, 41, 110, -18, 26, -21, -101, -100, 83, 75, -74, 89, 45, -117, 102, 56, -60, -18, -87, -15, -9, -46, 88, 70, 5, -100, 52, -68, 122, -66, 109, -42, -54, 101, 23, 26, -61, -45, -121, 60, 59, 90, 24, -36, 35, -55, 18, 101, 33, -65, -78, 24, 1, -25, 22, 83, -30, 12, 46, -81, -24, 102, -53, -6, -79, 119, 40, -76, 8, 36, 37, -5, 74, -39, -37, -62, 8, 119, 7, -21, 9, -106, -82, 115, -115, -126, 47, -52, 58, 111, 14, -39, 1, -115, 116, 113, 35, 34, 41, 9, -52, 44, 21, -5, -121, -114, -34, -89, 72, -93, -17, -70, -83, -95, 99, 120, 1, 19, 62, 34, -20, 90, 
  -61, 94, 108, -105, -101, 29, -57, -55, 46, -25, -29, 63, -85, 68, -71, 93, 109, 47, -1, -17, 122, 85, -10, 107, -21, 34, -102, -22, 69, -61, 105, 68, 19, -122, -41, -21, 45, -106, -78, -100, -86, 105, 82, 100, -65, 112, 64, -123, -117, 59, 67, -57, 11, 108, 5, 109, 82, -49, -41, 107, -88, 0, 9, -97, 38, 110, -111, 72, 114, 109, 54, -124, 93, -91, -18, 24, -9, -87, -88, -78, -80, -26, 18, -21, -71, 89, 118, 42, 87, -53, -97, 68, 54, -36, -105, -123, 40, 104, 26, 77, 50, -4, 6, 46, 119, -112, 1, -66, -6, 9, -81, 25, -16, -95, -118, 6, -39, -32, 118, 0, 2, -7, 52, -31, 110, -22, -57, -118, 
  -99, 36, 125, 80, 12, -107, -11, -31, 93, -126, 0, 46, -24, -36, -15, 1, 46, -117, 64, 121, -26, -31, 83, -21, 40, 34, 85, -105, 37, -113, -101, 122, -64, -110, 85, -52, 119, 73, 44, -85, 112, -111, 13, 100, -16, -30, -87, -45, 88, 103, -44, 47, -9, 110, -66, 92, 98, 53, -1, -32, -8, -72, 38, 111, 52, -77, -90, -66, -97, -99, 29, -74, -1, 0, 113, 62, -80, -70, -117, -33, 65, -124, -85, 15, -113, -109, 122, -64, -10, 6, 59, 84, -7, -66, 117, -109, 121, -23, -8, 3, 76, 21, 102, 88, -72, 58, -64, 90, 65, 18, 36, 111, -4, 38, 75, -52, -76, -58, -62, 55, -65, 43, -65, 106, 121, -41, 58, 77, 
  -92, -52, -72, 97, 79, -4, -33, -124, -34, -103, 75, 38, 66, 106, -118, 64, -24, -53, -59, -100, -61, 27, 39, -85, -94, 96, -117, -115, 27, 104, -62, -94, 15, -51, -57, 41, 14, 40, 74, -53, -5, 23, -72, 63, 83, 17, 100, 90, 30, 79, 22, -113, 9, 96, -93, -50, 79, -71, 82, -83, -71, -46, 120, 32, 28, -77, 51, -84, 108, 41, -99, 108, -46, 97, 74, -87, -41, -5, 55, 122, 106, 110, 120, 110, 111, 0, -118, -64, 6, -50, 33, -97, -36, 53, -41, 45, 59, -85, -11, -49, 72, -74, -55, -89, -57, -33, -16, 25, 19, 29, 21, 76, 88, 112, 21, 26, 118, -49, 104, 40, -85, -97, -15, 55, -48, 80, 105, 9, 
  11, 63, 118, 72, 58, 121, 74, 57, -75, -86, 10, 116, -53, 6, -112, 119, -28, -97, 52, -107, 37, -124, -64, 102, -49, 66, -117, 78, 58, -30, -121, 84, -100, 30, 37, 123, 53, -92, -73, -15, -40, 59, -74, 43, 91, 109, -10, 64, -27, -107, 50, 104, 50, -84, 81, 35, -23, 108, -42, 6, 107, 61, -8, 98, 44, -44, 72, -48, -29, -80, -56, -28, -60, -123, -62, 64, -5, 9, -35, 51, -112, 94, -91, 113, -43, -24, 63, -63, 66, 98, 115, -105, 99, 62, 56, 28, 15, 102, -12, 14, 97, -7, -35, -13, -56, -60, -36, -122, 35, -103, -110, -67, 45, 59, -88, 67, -116, 57, -5, -110, -7, -120, 10, -78, 41, -52, -49, 23, 
  95, 103, 2, 19, 112, 83, 83, 99, -121, -52, 64, 118, -117, -113, -115, -112, -21, -26, -77, 117, 81, 44, 125, 74, 23, 68, -103, -21, -50, 76, -101, 5, -30, -55, 56, 119, -46, 22, -16, 105, 95, -53, -14, -97, 82, -55, -93, 34, 19, 79, 5, -64, 126, -25, 54, -25, 5, -1, -32, -107, -88, -11, 55, 71, 63, 55, -91, 92, -88, -70, -111, 78, -76, -98, 120, -122, -106, -21, -63, 35, -55, -31, 68, -5, 74, -93, 0, 37, -68, -89, 91, -52, 12, -71, 99, -16, -35, 72, 47, -78, -5, 99, 36, 126, -86, -46, -22, 69, 17, -103, -51, 88, 19, -16, -83, -18, 19, 39, -4, 77, -2, 22, 35, 60, -51, -120, -65, 85, 
  -115, 52, 10, 13, 71, -91, 23, -13, -19, -96, 80, -70, -97, -113, -40, 110, 31, 19, 53, -8, -8, 84, 10, -94, 110, 35, 72, 120, -3, 97, 103, -17, -86, 59, 51, 58, 13, 38, -29, 97, 7, 36, 55, 78, 121, 6, -68, 54, -39, 89, 113, -90, -4, -76, -87, 73, -108, 114, 90, 7, 116, -39, 66, -28, -40, 59, -8, 2, 32, -85, 124, 39, 71, 51, -32, -64, 120, -73, 55, 88, -119, 62, 51, 37, 87, -100, 4, 96, 18, 62, -111, -67, 0, 19, -110, -15, -25, -109, 38, 90, 93, 27, 26, 103, 20, 116, -56, -52, 93, 59, -77, 0, 103, 117, -66, -107, 45, -123, 122, 60, 14, -109, 32, -54, -18, 5, -92, -15, 
  56, -4, -81, 25, -82, -84, 35, 25, -119, 79, -66, -52, 104, 85, 11, 45, 47, 105, -20, 102, -99, -89, -50, 68, -19, 39, 101, 99, -120, 96, 58, 18, -100, -27, -92, -32, -2, 111, 105, 29, -66, 116, 27, -98, -69, -85, 60, -44, -23, 57, 26, 21, 101, -56, -49, -38, -124, -60, 9, 123, -87, -82, 91, -17, 103, 49, -46, -125, 116, -57, -45, -46, 102, -24, 6, -5, 28, -106, -79, -40, 53, 45, -100, -116, 121, -80, -12, -22, -70, 92, 48, 113, 36, 110, -30, 50, 47, 65, 91, 4, 112, 80, -111, 26, -79, -74, -88, 90, -98, -52, -1, -106, 71, -4, 30, -75, 16, 126, -6, 74, 15, -86, 74, -111, -76, -21, -32, 73, 
  94, -76, 121, 117, 119, -82, -113, -100, 51, -31, -57, 88, 90, 55, 112, -66, -50, 25, 66, -3, 66, -124, -20, -19, -72, 125, -49, -68, -56, -6, -68, -44, -55, 42, -102, 85, -11, 26, -84, 39, 55, 125, 11, 18, 33, 32, 76, -21, -38, -102, -116, 119, 72, 20, -1, 111, -103, -44, 117, 104, -90, -56, 114, -84, -63, 41, 121, -25, -49, -8, -97, 94, -82, -71, -66, -110, 105, 78, -63, -88, -16, 78, -117, 21, -93, -114, 87, -35, 105, 96, 12, -43, 98, -5, -70, -110, 107, 61, -11, -34, -5, -63, 12, -96, -84, 95, -53, -114, 102, 40, -107, 108, 93, -65, -66, -59, -42, 112, 73, 117, -8, -42, 56, -93, 98, 73, -60, -4, 
  102, 66, 16, -87, -92, 72, -92, 75, -77, 43, 81, 45, -122, -12, -104, 94, 45, -36, -93, 60, -74, -75, -88, -101, -24, 42, -56, 82, -85, 124, -67, -58, 64, 22, 118, 39, 103, 112, -33, 88, 118, 71, 2, -56, -109, -96, -68, 14, 64, -9, -24, 51, 1, 74, 13, -38, 18, -56, 53, -23, -119, 89, 43, 90, 16, 26, 85, -23, 114, -95, -106, 36, 100, -102, 2, 83, 34, 67, -43, -103, 80, 4, -39, 42, -103, 118, -121, -123, -58, 77, -84, 34, 88, 113, 44, 39, -21, -109, -41, 36, 0, -46, 76, -103, 92, 14, -81, -113, -47, 29, 71, 68, -99, 21, 117, -110, 3, 78, 90, 94, 32, 33, -7, 102, -46, 114, 40, -41, 
  30, 99, 12, 23, -124, 62, 91, -63, -119, 42, -52, -36, -66, 55, 20, 51, -66, -69, -48, -73, -18, 121, 80, -35, 33, -88, 109, -11, 43, -71, -66, -21, 1, -51, -43, 63, 13, 91, 95, -60, -7, -68, -33, 51, -26, 60, -2, 122, 124, 45, 11, -62, -72, -9, -91, -85, 13, -109, 45, 67, -114, 3, -53, 120, -93, -122, -49, 110, 71, 84, 57, 37, 108, -119, -81, 111, -48, -36, -81, 76, -14, -75, -100, 63, -14, -32, 98, 25, 41, -40, 1, -23, 38, 104, -81, -20, 76, -101, -112, 83, -91, -49, 53, 68, -2, 51, 82, 40, 7, 79, 10, 118, -45, -34, -22, -71, 76, 121, -74, -87, 94, 35, -77, -2, -13, 17, 37, 31, 
  77, -13, -60, -84, 103, 15, 35, 87, 84, 71, 42, -63, -90, 121, -18, 79, -82, 86, 35, 40, 36, 48, 48, -65, -90, 89, -39, -59, -65, -122, 21, -91, 13, -99, 124, 61, 124, -15, 95, -112, -56, 43, -61, 102, -76, -51, -62, 42, -35, -116, 92, 39, -84, -36, -72, -26, -82, 73, -10, 67, 53, -124, 57, 10, 47, -110, 101, -52, 71, -83, 22, -47, -48, -89, 86, 48, -74, -122, -4, 29, 21, -14, -98, 76, 36, 42, -54, -101, 118, -6, -54, 4, 13, 54, 17, -64, 14, 76, 28, 13, -86, 124, 82, -121, 111, 62, 41, -52, 7, -108, -32, 10, -13, 62, 23, 104, -17, -13, -25, -61, -53, -54, -48, 50, -73, 8, 63, -39, 
  -17, -115, 117, -34, 67, 72, -96, -120, -88, -67, -76, 13, -63, -17, -121, -115, 79, 74, 53, -74, 47, -123, -85, 20, 38, -115, -105, 10, 46, 53, 62, -31, -113, 14, 79, 12, -106, 34, -66, -9, -118, 115, 51, 124, 48, 102, 56, -118, -32, 26, -9, 45, 92, -118, -111, -79, 104, 20, 17, 73, -114, -21, -65, 114, -94, 85, -102, 101, -22, 31, 106, -44, -111, 35, 88, 25, 21, -10, 22, -105, -56, 100, 51, 22, -79, -117, 58, 16, 52, 68, -62, 13, 69, 70, 104, -58, 95, -62, 94, 7, 116, 45, -14, -116, -104, -57, -40, 32, 80, 33, -79, -14, -124, 75, -120, 1, 118, -68, 32, 119, 111, -72, -55, -13, 51, 44, -48, -61, 
  -120, -63, 71, 121, -36, -29, 31, -13, 74, 53, -70, 119, 44, -15, -103, -42, -58, 73, 43, -24, 27, -41, 49, -21, 63, -66, 96, -4, 23, -32, 73, 40, -106, -15, -31, -5, -89, 72, -70, 48, -27, 35, -106, 77, -109, -40, 51, 75, 61, 16, 100, -107, 125, -67, 26, -50, -120, 94, 117, 23, 13, -125, -107, 119, 25, 1, -18, -19, 43, -39, 108, 103, -46, -7, 18, -95, 58, -40, -91, 16, -95, -67, 126, -109, -21, 11, -62, -74, -39, -70, 37, 46, -112, -35, 64, 125, -17, -26, 105, 97, -83, 105, -87, -61, 83, -28, 120, 46, 99, 19, 76, -4, 83, 9, 43, -117, -96, 67, 1, 16, 53, 83, 12, 12, -46, 9, -56, 101, 
  -84, -76, 56, -14, 78, -60, 41, 93, -98, 120, -74, 118, -7, -96, -15, 84, 33, -83, -20, -77, 20, -29, 100, 8, 47, 22, -71, 61, -5, 1, -11, -45, -98, 71, -34, -93, -90, 117, 87, -126, -77, -123, 88, 95, -126, 73, 92, 124, 71, 94, -113, -80, 115, -96, 110, -52, 14, -58, -14, -4, 125, 5, -34, -125, -19, -5, 39, 27, -51, 36, -10, 89, -11, 82, -122, 59, 40, -53, 2, -22, 21, 99, 74, -72, 92, 13, 75, -3, 111, -29, 50, -116, -114, -3, -90, -114, 93, 5, 22, 85, 97, -106, -100, -63, -7, -53, 68, -92, -63, -94, -63, -21, 90, -36, -43, -105, -28, -37, 94, -37, 59, 48, 50, 73, -119, -105, 112, -92, 
  75, 73, 49, -10, 112, -47, 0, 103, 78, 100, -85, 43, 99, -24, 71, 8, 23, -70, -78, -82, 66, 28, 96, -46, -41, 55, -86, 114, -107, 22, -33, 78, 1, -100, 73, 111, 4, -86, -103, 60, -5, 58, -52, -12, 49, -8, 57, 81, 51, -59, -74, 96, 23, -122, -74, 53, -57, 109, -17, 11, -44, -21, -55, -22, 99, 72, -37, -45, -38, -55, -19, 22, -31, 122, -118, -31, 96, -78, -27, -89, -100, 62, -55, 67, 106, 4, 11, 71, 25, 28, 33, -6, 51, 115, -119, -21, 44, -53, -79, -38, -16, 48, -117, -92, -67, 114, -8, -52, -97, -126, 22, 86, 47, -24, 60, 60, -31, -121, 29, 26, 107, -12, -118, 63, -16, -22, 21, 12, 
  -25, 52, -51, 13, -75, 19, 55, 116, 27, -124, 55, -93, 94, 122, 18, 3, 110, -77, 61, 114, -106, -83, 39, 76, 36, 100, -52, 71, 85, 60, 4, -24, 73, -34, -126, -119, 58, -11, 64, -70, -20, 78, -22, -94, 94, -99, -30, 97, 72, 101, 87, 122, -31, -66, -97, 5, 83, 81, 58, -3, 7, -30, 116, -26, 69, 82, 4, -4, -54, -96, 56, -111, 22, 2, -89, 22, 116, 33, -17, 99, -117, 25, -113, 68, 71, -7, 10, -50, -83, 56, 38, 99, 115, -59, 39, -81, -31, 56, 91, -92, 62, 24, -88, -8, 100, -125, -125, -96, 17, 92, 18, -43, -65, 106, 95, -9, -103, 19, 103, 34, 103, 88, -124, -20, -50, -118, 73, 100, 
  113, 85, 11, 113, 20, 12, 114, 71, -47, 36, 52, -13, -76, 55, -60, 46, -15, 84, 67, -13, -40, -102, -89, -109, -3, 50, 6, -49, 73, 84, -44, -39, -108, -75, 119, -27, 0, -30, -77, -76, 51, -18, 61, -95, 86, 79, -103, -3, -57, 15, 59, 96, -116, 39, 103, -75, 96, 101, 3, -108, -58, 52, 31, 58, -86, 7, 33, 79, 110, 21, 117, -1, -39, -50, -121, -52, 100, 47, 85, 15, -107, 82, -11, 87, 44, -95, 124, -105, 103, 71, -99, -121, -80, -96, -76, -60, -20, 117, 121, -99, 106, -11, -45, 124, 62, 84, -18, -42, -46, -104, 99, -66, 23, -3, -17, 82, -85, -105, -97, 6, -63, -100, -74, -71, 19, 6, -15, -43, 
  -89, 109, 1, 86, 61, -71, -80, 80, -6, 94, -46, -57, -16, -109, 100, 125, -78, -40, 45, 10, 59, 88, -108, -1, -119, -73, 68, -117, 0, -49, 38, -107, 15, 105, -117, 84, -125, -76, 69, -8, 51, 109, -17, -101, 46, -94, -8, 27, -34, 38, 104, 93, 56, -125, 11, 117, 9, 12, -89, -8, 99, -7, -42, 107, 53, -18, -90, 34, 106, -99, -113, -105, -52, -10, -108, -58, 17, -111, -33, -18, -84, -3, 56, -118, 113, -47, 26, -76, 122, -26, -85, -114, 72, -76, -121, 114, 39, -53, -64, -61, 46, -73, -122, -21, 101, -104, 42, 115, 94, -68, 28, -87, 81, -100, -5, -59, -43, -2, 21, 119, 114, -29, 79, -39, -99, -81, -7, -7, 
  -73, -105, -27, -60, -59, 76, 4, -25, 92, -117, 95, -38, 27, 50, -109, 24, 100, -92, -75, 50, -116, -31, 7, -28, -58, -55, 9, -29, 90, -14, -5, -91, -84, 57, 45, 23, 24, 88, -70, -10, 93, -102, -85, -18, 123, -15, 28, -123, -68, -23, -47, -37, -32, 62, 17, 9, -91, -25, -35, 100, 40, 91, -60, -46, -31, 91, 87, 89, -41, -75, 21, 124, 98, 85, -60, -76, -104, -43, 68, 0, 74, -63, 76, -110, 22, -38, -64, 7, -99, -47, 57, 100, 95, -95, 80, -8, 54, -108, -42, -17, -69, 89, -59, 27, -32, 27, -80, 32, -46, 54, -65, 66, -86, -16, -80, 45, 52, -30, -49, -59, -115, -25, 79, 95, 71, -75, -16, 37, 
  11, 18, 26, 115, -117, 102, 81, 69, 2, 44, 17, -69, -76, -99, 66, -51, 19, 102, 35, -9, 60, -15, -26, 101, -21, 114, 56, 90, -108, -120, 53, -87, 37, 103, -54, -110, 51, 29, -125, 98, -59, 70, -66, 102, 64, 111, -88, -53, -81, -44, 9, 86, -29, 15, 47, -121, 97, -89, 100, 67, -85, 107, 29, 97, 98, 74, 27, 104, 113, 78, -48, 115, -17, -24, 101, -11, -37, 82, -119, 106, 62, -94, 36, 21, 30, 77, 71, 18, 33, -30, 101, 21, -99, 40, -82, -60, 59, -50, -62, 68, 24, -59, -82, 53, 87, -72, 73, 73, 73, 107, 58, 67, -1, 5, -103, 45, 31, 67, -116, -6, -16, -2, 110, -7, -88, -12, 39, 50, 
  -2, 108, -82, 24, -4, -81, -70, -39, -33, 76, -18, -73, -113, -5, -16, -121, 92, -97, 31, 80, -87, 40, -36, 43, 99, -71, -123, -77, -63, -36, 49, 10, -114, 116, 83, -124, 124, -102, 90, 25, 53, -4, -118, -25, 11, -50, -61, -98, -59, 110, -93, 10, -23, -65, 71, 67, -58, -25, 64, 78, 3, 29, -77, 26, -123, -15, -34, -19, -90, -77, 22, 22, 37, -52, -7, -1, 36, 102, -102, -34, -73, -74, -118, 104, 1, 56, 78, -42, -92, 11, -41, -64, 31, -15, 38, 104, -61, -50, -36, 115, -41, -68, 20, 92, -63, -124, -30, 113, 46, -44, 117, 34, -81, -88, 32, 69, 125, 73, 8, -66, 95, -10, 1, 46, 64, 56, 62, 114, 
  56, 0, -52, 116, 84, 125, -120, -1, 124, 99, -86, 6, -73, 8, -36, 70, 92, 59, 118, 0, -116, 28, 14, -5, 92, 61, -61, -94, 26, 8, -49, -54, -49, 35, 62, 38, -110, -104, -62, 33, 93, 76, -33, -106, -54, -76, -69, 48, -42, -113, 49, 14, -60, 53, 30, 114, 68, 26, -123, -57, -58, 6, -34, 81, 19, -61, -94, 3, -96, 85, 61, 9, -58, 31, -48, 53, 5, -82, 81, 52, 75, 78, 29, -27, -53, 34, 39, 119, 3, 18, -73, -7, -7, -124, -78, -32, 58, 81, -51, -3, 30, -56, -21, 113, 99, 6, -3, -50, -46, -4, 79, -84, 19, 12, -62, 40, -64, 87, 1, 89, -118, -74, -7, -46, -63, 84, -90, -88, 
  104, -46, 67, -3, 43, -82, -87, -111, 5, 102, 60, -18, 108, -70, 7, 43, -126, -40, -63, -6, 14, 70, 19, -85, -103, 65, -5, 38, -63, -45, -119, 107, -22, 5, -7, 55, 64, -35, 112, 55, -16, 22, 116, 14, -32, 58, -87, -75, -30, -41, -18, 102, -113, 60, -2, 31, -22, 68, -6, 15, 94, -42, 10, -42, -6, -45, -21, -115, -116, -37, -67, -18, 65, 18, 114, 82, 32, 77, 117, -40, -103, -60, 102, 41, -62, 42, 32, -23, -60, -14, -31, 24, 122, 15, 45, -11, -56, 33, 29, -30, 39, -21, 121, -84, 116, -65, 37, -91, -61, -11, 14, 64, 46, -115, -107, 5, 83, 112, 102, 26, 93, 32, 105, -66, 67, 27, -1, -91, 
  -24, 13, 59, 27, -119, -59, -17, -98, -2, -75, -88, -82, -110, 43, -93, -46, -61, -46, -41, 56, -92, -45, -42, -1, -87, 21, 60, 119, 39, -29, 105, -75, -73, -63, -39, -28, 5, 104, 5, -95, 53, 13, 120, -57, 36, -102, 7, 11, 12, 56, -117, -70, 46, -23, 51, 123, 58, 116, -87, 97, 46, 113, -52, 80, -9, 35, -79, 39, -124, 16, 80, -48, -33, -22, 7, 72, 31, -86, -110, -52, -72, 90, -61, 14, 51, -74, 22, 122, 26, -66, -37, 48, 115, 69, 54, -33, 38, 40, -38, -43, -82, -5, -100, 86, 110, 113, -22, -94, 62, 24, 17, 92, -55, 15, 108, 90, 92, 28, 33, 89, -97, -40, 106, 92, -99, 114, 38, 78, 
  -34, -113, -24, 108, -16, -21, -1, 31, 110, -51, 43, -76, 125, -77, -101, 123, 11, -75, 19, -60, 107, 96, -52, -18, 47, -96, -30, -81, 65, -117, 24, -45, -41, -51, -85, 111, 28, -33, 73, 22, -107, -52, 39, 18, -44, -36, -117, 90, 25, -18, 34, 74, -15, -111, 89, -31, -41, 119, 56, 123, -17, 118, -64, 6, 26, 98, 46, -46, 65, 13, 82, -58, 102, 4, -85, 36, 10, -38, -100, 26, 121, -34, -80, -101, -35, -67, -93, -80, -121, 21, -13, -38, -4, -80, 28, -59, 1, 29, 90, 95, -33, 45, -58, 15, 56, -15, -74, 125, -65, -27, -50, 68, 120, -40, -35, 9, 49, 23, -82, -103, 62, -99, 83, -122, 53, -109, -100, 89, 
  -20, 17, 32, -16, -111, -50, 74, 58, -57, -120, -59, 8, -29, -28, -44, 15, -57, 48, -29, -43, -41, 94, 103, 80, -106, -97, -42, -14, 103, 83, 23, 70, -49, 18, 64, -57, 96, -74, 100, -20, 1, 14, 29, -26, -75, -88, -100, -115, -73, -58, -40, 107, -98, 102, 77, 1, 83, 52, 31, -18, 123, 123, 47, 1, 95, 85, 29, -40, 6, 8, -103, -60, -79, 4, 84, 60, 12, 32, 80, -23, 44, -8, 23, 84, -2, -59, -28, 77, 109, -18, -114, 87, 59, 36, -13, -106, 123, 126, 120, -1, -100, 53, 112, 46, -10, 66, -57, -84, 38, 77, -108, -12, -37, -126, 59, -98, 44, -49, -39, 111, -84, 60, -63, 113, 5, 107, -71, -106, 
  -4, -118, -3, 112, -99, -88, 20, 35, 5, -20, 53, 114, 62, 102, 57, -97, -21, 46, 31, -21, -47, -38, 35, -67, -108, -120, 110, 41, 28, 92, 116, 108, -52, 78, 86, 76, -80, -124, -58, -75, -20, -97, 58, 43, 99, 87, -47, 55, -48, -57, 30, -104, 34, 125, 9, -44, -113, 28, -24, -87, 116, 47, 2, -39, 63, 93, 12, -19, -84, -77, 73, 110, 9, 60, 3, -119, -33, -19, 43, 64, -74, 123, 64, 53, 47, 118, -100, 106, 38, -87, 125, 0, 64, -28, 81, -100, -116, 15, -71, -54, -108, 101, -41, -21, 63, -32, 112, -114, 80, 62, -87, 98, 117, -31, 0, 91, 78, -3, 37, -101, 80, -4, 12, -126, 29, -72, 94, 0, 
  72, 97, 36, 99, 65, -19, 19, 30, -118, -58, -114, 15, -65, -25, -29, -115, -45, -12, 87, -78, 5, -25, -36, -83, -12, -91, -66, -33, -91, 27, 87, 101, 80, -85, 52, -5, -41, 32, -33, 89, 74, 37, 12, -121, -84, -24, -40, 70, -4, -58, 59, 10, -98, -90, -6, -121, -54, 61, -120, 43, 43, 69, 80, 23, 119, 35, -26, -91, 113, 114, 90, 19, -126, -8, 10, -14, 58, 93, 12, -21, 48, 12, 32, 71, 41, -34, 36, 27, -114, 51, -82, -18, -46, -101, -75, -90, 118, 62, 43, -86, -25, 100, -121, -21, 90, -25, 18, 19, -33, -44, 61, -112, 29, -34, -52, -58, -104, -13, 0, 95, -56, -5, 30, -99, -103, 90, 11, 60, 
  -33, -66, -125, 18, 60, 27, -125, 112, 53, -14, -47, 80, -115, -116, 52, 20, 81, -96, -68, 92, 114, 13, -111, -96, 117, -5, 101, 95, 120, 75, 74, -94, 13, 94, 38, -68, -110, -13, -86, -42, -95, 74, -13, 115, 97, -56, -19, -74, 110, -71, -72, 103, 32, -27, -119, 45, 3, 34, -98, -83, -85, 83, 79, -90, 91, -43, -109, -14, 97, -90, 110, 79, -38, 27, 31, -71, -123, 103, -34, 65, -78, -25, -42, -37, -56, -116, 95, 3, -78, 84, 61, 21, -25, -3, 81, 32, -33, 60, -26, -1, -125, 38, -52, -110, 112, -44, 79, 43, 51, 92, 100, -41, 46, -2, -8, 40, -106, -44, -59, -65, 6, 100, -92, 57, -76, 37, -12, -81, 
  85, 67, -108, -32, -29, -4, -24, -21, 21, -41, -59, -73, 63, -118, -43, 108, 110, -36, -113, 65, -49, 67, -46, -30, -1, 57, -93, -13, 56, -52, -28, -118, 35, 37, 38, -51, -27, 102, -100, 113, -103, -114, -11, 115, 97, -22, -1, 18, 118, -120, 71, -44, 105, -22, 97, -73, 79, 45, -60, 70, 81, 42, 6, -61, 116, 33, -66, -64, 25, 16, -52, -25, -16, 59, -102, 44, 7, 87, 115, 46, -92, 118, -107, 118, 78, -80, -9, -51, 108, 71, -99, 42, -120, -103, 17, -78, 68, -55, -83, -5, 80, 34, -75, 110, -52, 27, 114, -32, 90, -40, -88, -15, -63, 37, -25, -17, 42, -74, 117, -42, 39, 18, -51, -106, -10, 25, -78, 101, 
  51, -86, -43, 109, -38, 124, -88, -8, -94, -9, -119, -110, 114, -35, -67, -123, 55, 103, 44, -70, -117, -45, -11, -90, 88, 33, -35, 81, 59, -11, 69, 106, -98, -5, -33, -9, -72, 85, -4, 23, -17, 25, 46, 111, -25, -59, 88, 28, 115, -97, 8, -26, 87, -57, -68, 123, -50, -6, -113, -92, 77, -104, -15, -74, 116, 91, 119, 3, 125, 56, 56, -26, -97, -54, -107, -55, -30, 42, -32, 70, -66, 66, -125, 120, 78, -121, -56, -42, 70, -41, 9, 18, 52, 36, -106, 11, 100, 75, 22, -19, -34, 54, -32, 68, 12, 48, 103, 70, -93, 45, -74, 103, -35, -73, -49, 29, 41, 96, 122, -41, -117, 111, 42, -81, 1, 104, -37, -76, 
  77, -100, -67, 23, -16, 47, -39, -34, 55, 56, 21, 16, 79, -102, 114, -101, 52, 59, 92, 105, -81, 61, 5, -74, 53, 125, -96, 56, 51, 94, -95, 115, 36, -29, 33, 123, -40, -58, -67, 111, 46, -97, -32, 88, -96, -103, 64, -24, -52, 93, -54, -6, -62, 98, 12, -120, -31, -80, -48, 67, 71, -72, -112, -41, -108, -108, 69, -13, 111, -78, -104, 47, 7, -9, -37, -60, 125, 21, 43, -48, -4, -39, 37, -23, -117, 120, 121, -19, 124, 51, 88, -114, -47, -81, 93, 47, -118, -23, -40, -21, -125, -15, 66, -125, 110, 4, 8, 54, -99, -73, 54, 120, 123, 101, 5, -116, -123, -104, 114, -17, 120, 55, -67, 21, 91, -63, 1, -33, 
  -43, 42, -53, 53, -58, 26, 68, 117, 7, -111, 56, -107, -108, 35, -6, 30, -27, 94, 7, 83, 22, 25, 81, -50, -23, 56, 108, -8, -83, 13, 86, -65, 124, -41, -124, -77, -19, 22, -89, -118, -63, -50, -69, -60, -23, 5, -43, -98, 44, -122, -38, 120, -85, -48, 113, 75, 108, -41, -59, 31, 12, 77, -71, 52, 4, -23, -40, 62, 11, 51, -78, 24, 3, -84, -101, -105, -55, -92, 79, -69, -44, 8, 41, -115, 83, -69, 10, -100, 0, -8, 39, 66, -26, 31, 46, 87, 0, 49, -102, 96, -92, -91, 124, 54, -125, -73, 100, 56, -48, 55, 106, 94, 97, -47, -82, -36, -104, 73, -18, 22, 40, 11, -38, -5, 66, -126, -107, 2, 
  4, 79, 26, -103, 81, 82, 49, -68, 45, -21, -64, -56, 110, 45, 78, 39, 56, -93, -93, -60, 16, -67, 61, 73, -120, -123, 75, -117, -60, 4, -88, 54, -44, -27, 31, -49, -56, 55, -44, -9, -67, -86, 68, 105, 87, 11, -121, -108, 102, -9, -34, -59, 64, 65, 70, -80, 36, -43, -14, -29, 39, 103, -124, -53, 117, 54, -105, -86, 119, -110, 84, -10, -31, 40, 83, 2, -34, -62, 46, -68, 7, -117, -90, 106, 21, -14, -48, 69, 98, 27, 47, -65, 45, 87, 86, -7, -60, 120, -98, 63, -78, 31, 88, 108, -113, 11, -61, -126, 66, 106, -105, 106, -40, -100, 102, -73, 106, 113, 102, 65, 119, -21, 45, -42, -25, -111, 53, 119, 
  15, 19, 42, 55, -89, -103, 2, -16, 81, 66, 72, 63, -41, 67, 19, -73, -13, 18, -1, -81, -46, -123, 19, 29, -71, 92, -90, -109, 49, -122, -101, -120, 11, 95, 65, -102, -125, -53, -67, 3, 77, 45, 14, 73, 50, 1, -2, 68, -73, -47, 125, -62, 15, -18, -46, -105, 61, -83, 20, 94, 25, -70, -16, 17, 70, 63, -107, 82, -112, -7, -86, -75, -56, -14, 45, 86, -56, 16, -80, -117, -116, 119, -28, -112, -105, -80, 60, -44, 123, 99, -103, -10, -97, -31, 100, -63, 125, -118, 60, 50, 67, 78, -96, -119, 55, -51, 118, -26, 118, -86, 107, -54, 30, 2, 24, 4, 45, 91, 24, -123, -56, 54, -44, 81, -2, -124, 6, -50, 
  -36, -51, -35, -94, -5, 117, -95, 95, -92, 97, -108, -81, 91, -61, -53, 4, 25, -19, -39, -107, -4, 74, 104, 61, -116, 11, -32, -75, -81, -79, 57, -58, -80, 122, 43, -84, -125, -38, 32, -68, 74, -23, -29, -61, 99, -84, -9, 88, -16, -116, -72, 44, -37, 48, -46, -59, -78, 80, 107, 113, -107, 103, -87, 33, 84, 98, -5, -126, -25, 79, 5, 25, 88, 24, 82, -43, 84, -65, 84, -71, 30, 29, 35, -47, 99, -10, -35, -49, 101, -112, 101, 27, -124, -47, 28, 1, 14, 93, 8, -125, 67, -105, 45, -78, -124, -65, 9, 14, 72, -14, 68, 49, 100, 53, 1, -89, -103, -61, -35, -51, -62, -115, 56, -1, 118, 92, -19, -92, 
  68, -65, 78, -118, 109, 75, -97, -70, -109, -66, -84, -112, 37, -104, 77, -122, 23, -41, -112, 65, -94, -80, -119, -55, 8, -123, -103, 72, -89, -39, 53, 95, -118, -87, -21, -56, 64, -118, -86, 32, 90, 52, 109, 82, -20, 64, -33, -33, -30, 35, 111, -120, -68, 63, -118, -116, 5, 117, -98, 81, -44, -112, 56, -81, 13, 94, -43, 72, 23, 99, -62, -37, 63, 119, -63, -43, 56, 56, 58, -115, 1, -76, -1, 113, 120, 52, -121, -98, -85, -56, -99, -117, 74, -121, 58, -12, -115, -63, -18, -60, 45, -52, -30, 96, -87, -11, -82, -3, 22, -65, 35, -86, 13, 13, 76, -116, -125, 91, -72, -109, -25, -40, 106, -90, -96, -76, -63, -115, 
  85, 77, 45, -67, 30, -19, 50, -121, 82, -48, -72, 78, 109, -55, -68, 32, 112, 113, 45, -85, 61, -121, -23, -37, -122, -105, 122, 104, -34, -27, 76, -81, -108, -121, -103, -105, 41, 112, 84, -54, 23, 25, 12, -6, 43, 83, -53, -36, -54, -80, -33, 17, -82, 95, 60, 94, -30, 4, 45, -104, 94, 45, -4, -12, -35, -79, -81, 70, 58, -91, 39, 94, -79, 24, 26, 81, -29, 1, -53, -62, -124, -74, -8, 76, 16, 36, 70, -41, 79, 89, 55, -75, 62, 119, -48, -17, -39, -49, 11, -72, 30, -46, -15, 7, 39, -2, 9, -33, 62, 89, -117, 84, -33, 24, 31, -91, 69, 28, 45, 122, 58, -83, 102, 100, -10, 24, -3, -81, 
  21, 77, -5, 73, 76, 71, 17, -78, 86, 84, 37, -99, 17, -17, 60, 106, 118, -38, 81, -103, -92, 123, -91, -75, 100, 33, 25, -61, -19, -117, 25, 88, 56, 15, -17, -4, -112, -120, 107, -48, 121, 50, 49, -4, -42, 63, -120, -67, -19, 39, 62, 95, -74, -126, -65, 25, -27, 116, 94, -70, -18, -120, 17, 3, 20, -88, 52, 20, -36, -40, 118, 90, 81, -85, -2, 112, -57, 111, -76, 105, -100, -58, -85, 43, -96, 37, -32, -114, -6, -104, 82, 88, 30, 95, -43, -85, -77, -10, -15, 29, 73, -125, -9, -66, -106, 63, 122, 53, 96, 20, -115, -65, 101, 58, -15, 64, -16, -69, -119, -13, -72, 62, 9, -99, 95, 77, 2, -66, 
  -53, 66, 35, 62, -7, 88, 62, 33, 12, 47, 117, 83, 111, -103, 60, -24, -94, -41, -3, 7, 26, -12, -43, -105, 100, 4, -36, 15, -64, 14, 80, -92, -69, 92, -40, 53, -11, 40, 30, -69, -88, -77, -47, 87, 96, -120, -94, -94, -26, 59, 106, -77, -62, -71, 24, -84, 74, -103, -96, -123, 24, 80, -107, 71, 22, 84, 111, 119, 36, -117, 18, 62, -44, -52, 57, 68, -81, 9, -100, -94, -26, 3, -26, -93, 76, 58, -123, -91, -5, -72, 31, 1, -70, -90, -59, 122, -10, 35, -32, 113, 118, -55, 69, 83, -87, 123, 94, 13, -55, -53, 88, 19, -93, -1, -47, 54, 85, -110, -40, 5, -68, -98, -78, -104, 42, 115, -11, -8, 
  -53, -19, 75, -118, -89, 8, -66, 91, 6, 14, 42, -56, 93, -48, 123, 13, -114, 41, -66, 96, -25, -48, -13, -14, 65, 121, -9, 24, 40, -119, -96, -4, 7, 99, -19, -37, -86, -28, -93, 33, 94, 109, -18, 18, -50, -75, 33, -14, 114, -118, -109, 14, 89, 85, 43, 78, 15, 50, 66, 3, -23, -38, -62, 49, -81, -84, 41, 60, 76, -93, 98, -11, 86, -62, 10, -45, 11, -55, 27, 8, -19, 66, -18, -52, 71, 71, 27, -41, 76, 18, -100, -51, -51, -39, -97, 107, -105, -99, -10, -80, 21, -100, 94, 94, -94, -67, -11, -100, -68, -53, -76, -82, -74, -24, -109, -41, 34, -4, 39, 2, 114, 42, -70, 105, 37, -15, 93, 98, 
  92, 25, -30, -39, 17, 83, 114, 3, -124, 48, -88, -82, 77, 114, 125, -85, 65, 56, -84, 5, 22, -121, -30, 38, -83, -49, 113, 0, -16, 90, -37, 113, 109, 66, -45, 26, 50, 59, -82, -90, -12, -114, 38, -23, -79, -39, 121, -69, 69, -26, -14, -45, 99, 35, -37, 45, -49, 103, 7, 96, -115, 13, -72, 33, 68, 110, -48, 49, 35, 16, -28, 33, 44, 25, -102, -8, -8, -86, 22, 18, 113, -3, -2, -36, 97, -41, -55, -118, 45, 82, -57, 42, -37, 70, -71, 76, -52, 68, -106, -40, 56, 62, -51, 118, -88, 84, -39, -118, -16, 62, 96, 73, -43, -28, -86, 10, -84, -52, 65, -61, 103, 81, -5, -15, 39, 63, -57, -15, 
  -7, -53, -4, 30, -87, 37, 47, -99, -102, -68, -62, -70, -107, 14, 67, -92, -47, -68, -62, 88, 112, -122, -81, -116, -62, -7, 88, -13, 25, -7, 121, 13, 29, 0, 10, -35, 81, -75, -52, -101, 88, -14, -99, -17, -61, 55, -26, -1, 12, -70, 8, 71, -95, 41, 37, -48, -43, -27, 96, 81, 18, 39, -17, -121, 38, 76, -25, 26, -105, -2, -118, 49, 46, -125, -34, -65, 78, -2, -124, -68, 37, -96, 104, 94, 69, 66, -103, -90, 48, 42, -18, -112, 116, -46, -2, 52, -79, 65, 76, -8, -107, -95, -92, -103, 107, -84, -44, -94, -7, 103, -22, -11, 118, -113, -25, 100, 19, -12, 20, -69, -71, -6, -53, 12, -55, 34, 44, 27, 
  -27, 109, -24, 79, 81, -5, -72, 29, 115, -124, 107, -108, 67, -115, -64, -70, 15, -76, 81, 117, -96, 97, 0, 99, 106, 4, -35, 45, -48, -116, -71, 32, 24, -123, -69, -113, -123, 122, 120, 113, 101, -14, 78, 73, -123, 1, 0, -9, -30, -7, 79, -23, 22, -109, 74, -26, 110, 89, 124, 114, 97, -126, -37, -1, 77, 21, 78, -105, 2, -4, -111, 30, -43, -70, 81, 91, -28, 65, -67, 119, -72, -102, -96, 31, 24, -60, -32, -61, 89, -118, 118, -31, 15, 102, -3, -113, -35, -109, 122, 41, -67, 112, -3, -114, -51, -67, -73, -110, 18, -98, -77, 19, -55, -119, 108, -24, 121, 111, 89, -73, 25, 33, 60, 102, 86, -45, 124, 71, 
  56, -19, 27, -12, -60, -107, 13, 120, -10, 100, -86, -110, 106, -34, -42, 121, 35, 8, -111, 100, 106, -82, -75, -66, 68, -121, -9, -77, -57, 16, -114, -46, -80, 44, 43, 117, 65, 78, -10, 60, -116, -100, -114, 41, -107, -82, 47, 95, 0, 126, 40, -48, -13, 56, -93, 102, -40, 77, 110, 101, 42, -65, -113, 36, -34, 123, 23, -125, 12, -6, -6, 26, -18, -104, -89, 47, -78, -22, 99, 122, -13, 16, 39, 63, 112, 36, 10, -46, -9, -62, -117, -106, -81, 29, -24, -113, 104, 17, 63, -84, 110, -125, 104, -62, -91, -2, 7, -36, -77, -42, 105, -122, -110, -110, 51, 83, -34, 68, 37, 27, -24, -11, -79, 106, 88, -68, -101, -68, 
  -98, -10, -15, -41, 74, 86, -37, 23, -28, -83, 79, -45, -114, 53, -123, 87, 90, -94, -92, -69, 53, -10, -103, -54, -117, -5, -125, -21, 71, -28, -78, -36, -82, -32, 55, 101, -89, -37, -91, -102, -60, 25, -51, -98, -16, -40, 90, -94, -112, 63, 12, -89, 26, -55, 112, 33, -89, -53, 57, -38, -108, 52, -55, 93, 104, 101, -13, 59, 62, 105, -107, -49, 11, -79, 66, -64, -29, -41, -74, -41, 96, 120, 68, 0, 38, 86, 100, -35, -101, 76, 18, -24, -51, 22, -16, 96, -27, -99, -62, -5, -22, -114, -87, -103, 53, 120, -41, 55, 125, -93, 51, 23, -19, 0, -98, -49, 70, -93, 98, 105, 105, 20, 66, -5, -38, 107, -86, -122, 
  -116, -9, -59, -21, 94, 67, 96, 31, 52, 67, -62, 13, -61, 90, -109, -6, -89, 7, -124, 61, 15, -39, 1, -110, 64, 123, 86, -67, 53, -107, 85, -70, 8, 68, 42, -67, 60, -29, -53, -81, 61, -6, -30, -123, 5, 123, -4, -117, 93, 105, 89, -91, 47, -55, -74, 99, 41, 44, -21, -26, -24, -54, 51, 28, 116, -4, -19, -6, 62, -60, -12, 27, -56, -25, -69, -65, -78, 9, -5, -8, 88, -111, 65, -11, 34, -80, -104, 100, -88, -83, -38, 65, 100, -95, 50, -97, 12, -74, 102, 77, 31, 111, 57, 7, -56, -104, 6, 14, 43, -63, -41, -86, 21, 111, 82, -1, -59, -126, 47, -62, 82, -90, 33, 74, -126, 13, -112, -85, 
  -67, -39, -45, 53, -30, 17, -82, -102, -88, -18, 46, -23, 93, 52, 9, -49, 5, -31, 50, -29, 26, -6, 12, -46, 65, -33, -19, -47, 15, 28, 75, 1, 91, -117, -61, 31, -86, 98, -28, 109, 45, -96, 57, -6, 93, -87, -122, -43, -51, -103, 36, 110, -19, 7, 80, 19, 57, -58, -73, -75, 19, 31, 58, 0, -63, 10, 114, -25, 65, 64, -116, -79, -120, 59, -84, -24, 35, 49, 21, 85, 13, -2, 90, -31, -93, 92, 13, 48, 8, 38, 117, -124, -106, -11, -97, 93, -14, 66, 22, -110, 48, 114, -7, -76, -58, 112, 110, 85, 1, 122, -34, -4, -47, 54, -34, 120, -50, -106, -8, -27, 5, -58, -76, -28, -23, 23, -89, 125, 
  -102, 106, -55, -94, 46, 78, -33, 100, 23, 55, 72, -33, 89, -27, -54, 4, 108, 106, 97, -77, -53, 37, 99, 89, 88, 48, 103, -5, 38, 14, -97, 103, -81, 4, -28, 59, -46, 68, -2, 39, -122, -55, -50, 35, -68, -37, 26, 121, 112, -38, 121, 107, 12, 77, 120, 116, -31, 110, 46, 42, 22, 9, 85, 108, -19, -88, -42, -116, -55, -1, -34, 109, 78, 25, 111, -98, -90, -57, -59, 6, -8, 60, -47, -44, -47, -111, 14, -53, 118, 53, -50, 119, 73, 108, -111, 9, 54, -4, -123, -116, -122, 54, -67, -122, 74, 13, 92, -105, 87, 61, -70, -121, 40, 11, 86, -110, -77, 16, -3, -14, -55, 90, 115, 120, 115, -7, -8, 50, 
  -44, -30, -14, 9, -61, -62, -24, 38, -123, -67, -84, 58, -124, -39, -91, -73, -105, -54, 123, -46, 0, -17, 119, -10, -31, 64, 3, -66, -84, -79, 112, 92, -44, -75, -107, -103, 3, 84, 89, 17, 84, 23, -119, 80, 29, -65, -82, -105, -106, 59, -52, -17, 8, 28, 68, -113, 24, -22, -92, -69, -105, 117, -36, 6, 68, 66, 7, -63, 31, -35, -112, 85, -101, 86, -30, -36, -121, 88, 91, -37, 59, 99, 0, -55, 57, 70, -13, -54, -123, 15, 97, -122, 116, -22, -56, 22, 66, -7, 61, -65, -49, -5, -123, -36, 44, 125, 105, 75, -8, 79, 11, 125, 57, 110, 18, -53, -57, -46, -64, 57, 86, -35, 76, 126, -85, -124, 25, -50, 
  96, 30, -61, 111, -64, 32, 85, -67, -13, -112, 54, -45, 119, -82, -83, 75, 1, -55, -51, -3, 35, 67, -122, 86, 79, -76, 121, -12, 116, -37, -106, 48, -60, -99, 24, 89, 56, -54, -59, -66, -124, -31, 118, 70, 20, -3, -100, -75, -115, 75, 108, 23, -64, -113, 65, -97, -124, -72, 92, 11, -89, 46, 106, -60, -40, 18, -78, 32, 9, 109, 22, -69, 61, -60, 8, -43, 66, -77, -102, 112, 28, -60, 15, 86, 20, -102, -120, -59, -10, 64, 49, 45, -46, 19, -70, 24, -120, 15, -123, 61, -39, -3, 14, 87, -11, -50, -16, 10, -123, -59, -73, 17, -36, -54, 72, -112, 58, -72, -71, -85, -28, 91, -11, -45, 60, -122, 7, -109, 
  106, 80, 4, 93, 91, 91, 89, 60, -101, 57, -44, -50, -96, -26, 37, 126, 113, -96, -33, -118, -83, -48, 37, 6, 81, 86, 19, -74, 98, -91, -19, -33, -36, 19, 63, -49, -86, -11, -72, -61, -64, -44, -94, -62, 73, -67, -29, 39, 108, -10, 48, -58, 77, 79, -20, 100, -115, -69, 95, 52, 18, 76, 37, -94, 74, 40, 76, 66, 3, 17, -9, 98, 106, -43, 52, -91, 91, 24, 114, -123, -118, -49, -92, 45, -80, 11, -40, -13, -4, 104, -118, -39, -104, 36, 64, -22, -6, 12, -119, -42, 19, -109, 64, 4, 123, 56, -104, 27, 110, -44, 79, 108, -108, 117, -101, -39, -35, 80, -80, 110, 101, 94, 51, 84, 66, 111, -111, 9, 
  -72, 111, 75, -14, -23, -7, -12, -42, 90, 18, -107, -126, -24, 120, 117, -108, -48, 46, 107, -74, -36, 99, 93, -108, 76, -6, 116, -99, -70, 2, -83, -118, -55, 42, 74, 39, 73, -107, -80, -12, 32, 63, -84, -113, -117, -81, -105, -33, -103, -59, -16, -86, -82, 2, 101, -26, -115, -15, 49, -88, 24, -79, 81, -64, 111, 36, 36, -29, -113, 36, -71, 92, 39, 10, 53, -88, -75, 22, 100, -58, 56, -14, 111, -65, -71, -5, -10, -16, 118, -73, 98, 100, -63, -16, 86, -83, 108, -72, -54, 42, -84, -89, -42, -25, 14, -21, 73, 63, -100, 124, 34, 88, -54, 35, 107, 73, -11, 57, 32, 1, 77, 96, -3, -124, 3, -65, -41, -85, 
  114, 4, -18, 115, 95, -107, 97, 68, -16, -56, -107, 84, 2, 0, 101, 79, -12, 69, 114, 125, -13, 107, 20, -37, 65, -59, -74, -24, 44, 65, 44, 39, -12, 49, 123, 17, 111, 119, -12, 78, -57, -30, -42, 31, 102, -111, -24, 19, -112, -114, -113, -11, 1, 16, 67, -8, 60, -113, -2, 113, 14, 49, 83, 15, 114, 40, 58, 106, 107, -11, 82, 11, 73, 14, 94, 111, 28, -23, -45, 47, -60, -121, 50, -92, -70, 48, 81, 75, -28, -71, -116, -23, 122, 76, 2, 59, -33, -34, 32, -41, -86, 44, -93, 84, -118, -110, -34, -14, 0, -57, 64, 83, -60, 77, -109, -50, -119, 100, -19, -74, -49, -69, 76, 53, -76, 113, -88, -103, 
  51, -72, 6, 98, 37, 74, 60, 0, -66, -100, -36, 69, -21, -29, -30, -111, 15, -79, -104, -116, -26, -20, 105, 126, 4, -57, -52, -32, -57, -92, 64, -40, 79, 56, 31, -81, -110, 120, -55, 82, -110, 36, -81, 125, 60, -6, -77, 88, -34, -9, 119, -83, -69, -86, 4, 62, -74, 113, 100, 69, -24, 47, 18, 112, -105, 56, 92, 87, 38, 31, 29, 87, 7, 13, 121, 119, -97, -40, 113, -113, 119, -90, -30, 104, 103, -119, -108, -58, -42, -79, 2, -108, -120, 2, 83, 114, 110, 68, 80, 22, -114, 86, -125, -96, 5, -12, -72, -25, -41, 68, 34, -102, 90, -83, -64, -51, -2, -126, 23, -56, -111, 48, 18, -40, 122, 85, -92, 80, 
  105, 27, -60, -108, 15, -89, -38, 73, -108, 119, -85, 118, 21, -96, -29, -30, 62, 38, 117, 58, 65, 102, 35, 118, -29, 28, 109, -111, 70, -67, 58, 36, -48, -45, 84, -86, -116, 107, 116, 1, 27, -69, 15, 78, -29, -106, 95, 70, 68, -96, -71, 98, 101, 64, -112, -20, -82, -58, -113, 3, 84, 116, 20, -101, -63, -96, 125, -60, 107, 68, -4, -104, -112, 119, 76, -9, 98, 25, 67, 16, -111, 60, -20, 81, 47, 59, -7, -2, -61, 65, 1, 66, 32, -93, -123, 120, 79, -91, -121, -78, 94, 102, 70, 109, 107, -55, -43, 109, -34, 110, -14, -61, 1, 80, 117, -43, 63, -47, 121, -33, -90, 103, 4, -122, -37, -88, 89, 16, 
  -26, -79, 75, -120, -79, -112, -66, -88, 108, 38, -72, -86, 116, 15, -122, -4, -122, 44, 62, -59, -21, -126, 12, 90, -42, -38, 37, 105, -122, 8, 13, -36, -35, 108, -48, -61, -112, 98, 47, -57, -30, 51, -104, 37, -103, -116, 10, 80, 38, -49, -33, -68, 91, 60, 12, 65, 2, -86, 79, 42, 73, 91, 103, 118, 33, 94, 82, -119, 45, -12, 12, -51, -29, -47, -74, 39, 10, -50, 47, 120, 90, 30, -68, -85, -61, 57, -70, -38, 15, -118, -68, 117, 124, 47, 16, -96, 7, -77, 119, -108, 1, -52, -126, -120, 17, -81, 125, 25, 6, -120, -17, 72, 48, -88, -32, -14, -118, 121, 29, -119, 107, -73, -104, 29, -81, -28, 4, 70, 
  92, -25, 119, 108, 57, -93, -97, -53, 5, -39, -65, -40, 5, 23, -11, 39, 18, 72, -111, 74, 116, 45, 62, 112, -46, -75, -112, 34, -95, 52, 33, 91, -30, 45, -111, -42, -71, 24, 51, 11, -91, -111, 58, -43, 8, -20, -65, 62, 6, -123, 114, -112, 20, -33, -1, -12, -40, -27, 17, -62, 62, -91, -1, 0, 64, -122, 19, 39, -96, 111, -51, -1, -55, 80, -24, 83, -54, 119, -28, 15, 71, -62, -12, -92, -116, -29, -120, -80, -91, -37, 18, 60, 99, 124, -107, -4, -123, -101, 22, 78, -87, 66, -59, 17, -24, -68, -86, -90, -55, -57, -37, 74, 61, 23, 79, -75, -115, 77, 92, 81, 3, 95, -101, -114, -33, 69, 2, 105, 
  -111, -39, -76, 18, -108, 60, 87, -102, 126, -61, -75, -52, 92, 116, -70, -112, 96, 24, -68, 41, -98, -40, -96, 35, -100, -40, -87, 60, 126, 69, 61, 70, 3, 116, 41, -37, -91, 92, 102, 42, 0, -113, -20, 94, 57, -104, -10, 85, -80, 102, -8, 31, -55, 92, -95, 101, -66, -71, 17, 89, -107, -86, -35, -71, 28, -26, -97, -3, 88, -119, -66, 8, -123, -5, -48, -63, -40, -26, -80, 46, 31, -52, 106, 12, 20, -82, -49, 16, -36, -101, 80, -121, 61, -36, 31, -97, 4, -57, -100, -47, 74, 115, 37, -120, -117, -8, -44, 98, -52, 44, 49, 97, -72, 76, -81, -30, -24, -61, -25, -66, -28, -5, -90, 37, 62, -3, -105, 76, 
  -88, -98, 6, 40, 0, -29, 15, 28, -79, -118, -90, -12, -126, 86, 123, 112, 52, 32, 58, 120, -86, -117, 99, -114, -59, 75, 46, -76, 111, -1, -10, -53, -25, 118, 102, -66, -90, -3, 120, 70, -49, -65, 31, 114, 9, 16, -24, -103, 80, 10, -122, 37, 96, -112, -40, -124, 100, 118, -107, 70, -116, 81, 42, -15, -106, 109, 10, 62, 74, 20, 43, -56, -46, -9, 115, 117, 23, 74, 30, -122, -20, -119, -16, -14, -73, -121, 113, -45, 82, 29, -42, -30, -9, -27, 30, 19, 119, -12, -84, 53, 123, 77, -35, -77, 97, 76, -22, 16, -122, -115, 47, 92, -124, 79, 67, 99, -14, 82, 103, 115, 44, 121, -40, 102, 19, -70, 75, 19, 
  92, 71, 43, 5, -72, 112, -3, 69, 42, -41, -10, -35, 24, 106, 74, -23, -81, -18, -15, 35, -29, 95, 66, -12, -6, 113, 20, 18, -82, -26, 45, 92, -104, 13, -55, 61, 115, -79, -107, -114, -98, -30, -75, -86, 120, -2, 30, -13, 79, -113, -42, -24, 87, -7, -25, 56, 9, -109, -6, 80, 122, -16, -83, 87, -25, 113, 55, -20, 34, -98, -79, -19, -36, -46, -81, -71, -15, 11, -51, -96, 126, -10, -42, -99, -82, 87, -19, 16, 88, 60, 71, -14, -3, 115, -73, -50, 10, -115, 54, -103, 120, 76, 89, -26, -114, -13, 94, 45, 30, -29, 76, 41, 0, -45, -46, -19, 76, -73, 36, 94, 39, -71, -101, -31, -43, 75, 108, 83, 
  -89, 46, 97, 46, 55, -106, 83, -95, -18, 121, 115, -86, 98, -79, -25, -29, -108, 116, -97, -34, 62, 117, 24, 19, 11, -42, -74, 51, -68, 111, -89, 20, -59, 111, -5, 66, -94, -11, 58, 31, 106, 42, -4, -52, 95, -87, -51, 106, 121, -94, 43, 69, 108, -74, -116, 103, 82, 111, -52, 50, 92, -5, -29, 19, -11, -106, -97, 58, 67, 9, 58, -61, 54, -2, -95, 114, 14, 87, 123, 92, -124, -25, -116, 51, 34, 14, 25, -100, 3, -86, 81, 53, -81, -87, -39, -41, -18, 29, -10, -97, -84, -32, 69, 110, -18, 112, 1, -79, 30, -26, 79, -39, -115, 92, 100, 93, 10, -69, 105, 54, -85, -121, 49, -57, -113, 121, -91, 125, 
  119, 57, -85, -80, 28, 36, -99, 113, 85, -66, 87, 46, -117, -119, -51, -41, 119, 21, -122, -88, -1, -79, 4, -57, -80, -124, -60, 118, 122, 28, -90, -9, 51, 87, 64, 107, 93, 121, -53, -87, 100, -84, 69, -106, 8, -32, -8, 103, 101, 34, -15, -72, 47, 105, 16, 81, -63, -8, -8, -102, -14, 1, -90, 111, 67, 32, 96, -7, 124, -89, -42, -61, 51, 35, -35, -93, -99, 113, -70, -123, -93, -124, -89, -87, 24, -98, -100, 88, -41, -57, 31, 89, -36, -54, 46, -123, -78, -110, -76, 1, 89, 75, -116, -122, -66, 70, -84, 89, 70, -47, 88, 98, -63, -50, -88, 118, 106, 16, -69, 74, -17, -28, -51, 73, -20, 94, -32, 62, 
  -113, 47, 74, 0, 82, 44, -120, -32, -102, 42, -13, -72, -24, -58, 60, -16, -64, 124, -39, -125, 45, 14, -33, 66, 0, -16, -36, 56, -125, 6, 28, 107, 102, -18, 101, -80, -87, -27, 29, 0, 32, -6, 56, -121, -94, -108, -124, 106, 19, -107, 101, -4, -71, 114, -66, -72, -103, -30, 29, -44, -27, 90, 116, -20, 59, 5, 105, -92, -31, 60, 115, -59, -57, 14, -79, 82, 46, 54, -125, 35, 89, -16, -118, -80, -109, -84, -52, -65, -30, 102, 55, -71, 31, 10, 103, -110, 21, -63, -124, -40, 86, 9, 49, -93, -124, -114, -38, 49, 81, -44, -92, 14, 16, -84, -42, 106, 106, -33, 27, -86, -46, -30, -104, 98, -11, 121, 45, 11, 
  104, 88, -65, 14, 31, -98, 65, 17, 115, 29, 21, 10, 36, 23, 50, -4, -30, -27, -59, -119, -78, -7, -119, 113, -73, 53, -41, 45, -60, -85, -53, 69, 3, 62, -78, 6, -53, 4, 64, -22, 120, 87, 56, 106, -8, -115, 27, -58, 16, 84, 109, 0, -102, -17, -28, 21, -6, 17, -66, 23, -64, 23, -35, 38, -73, 116, -66, -60, -64, -96, -71, 95, 116, 30, 30, 27, -124, 47, 44, 62, 46, 100, 81, 77, -31, -98, -125, 57, 41, -49, 37, 117, 118, -36, 41, 31, 98, 87, -85, -96, -110, -108, 118, -9, 60, -94, -42, -47, -69, -63, 79, -84, -85, 73, 70, 13, 87, -11, -7, 65, 8, 56, -64, -28, -84, -120, 95, -85, 
  80, -81, -86, -80, 114, 102, 17, 41, 12, -32, 88, -46, 114, 21, 27, -85, -35, -117, 99, -33, -90, -106, -80, -84, 70, 85, 25, 22, 97, 0, 69, -103, 45, 6, -108, 113, -45, 115, -8, -123, 115, 61, -74, -100, 28, 121, 71, 116, 48, 28, -121, 87, -123, 110, -97, -34, -106, 58, -34, -83, 54, 94, -67, -46, 39, 28, 47, -41, -98, -124, 28, 106, -122, 115, 18, 35, -105, 102, -31, 77, -101, -91, -102, -13, -25, -103, 124, -86, 22, 37, 58, 43, -59, 5, -37, -17, -81, 34, 48, 103, 48, -50, -114, -17, 28, -60, -14, 5, 92, -3, 46, 2, 123, -19, -1, 69, 51, -95, 71, -103, -78, -57, -52, -124, -67, 45, 46, -59, 
  -87, 50, -50, 66, 47, -60, -63, -1, -46, -84, 40, 72, -28, 12, -11, 0, 116, 5, -41, 25, -51, 70, 82, 9, 21, -121, -93, 2, -9, -79, -83, -17, -67, -73, 22, -72, -36, 54, -64, 112, -90, 18, -97, 60, -13, -105, 21, 36, 9, -57, -4, -90, -118, -67, 30, 18, -29, -58, 75, 112, 17, -69, -63, -16, 35, -29, 93, -107, 63, -17, -119, 34, 103, 47, -12, -71, -59, 27, -84, -20, -2, 97, -82, -115, 56, -3, -38, -90, 111, -26, 111, 84, 31, -41, 10, 72, 0, -92, 12, 116, -100, -11, 22, -70, -56, -62, -8, 39, -81, 122, -42, -69, 105, 108, -67, 42, 39, 41, 74, 45, -1, 15, 30, -86, 75, -1, 123, 114, 
  -42, 91, 38, -99, 90, -40, 51, 20, -72, -89, -32, 111, 98, -11, 44, 15, 123, 55, -121, -15, -107, -80, 97, 75, 28, 5, 34, 60, 95, 28, 54, -112, -27, -23, 48, -71, -97, -94, -24, -22, 29, 21, -119, 17, -32, 104, -41, 9, -65, -42, 43, 90, 35, -4, -63, 31, -70, 24, 98, 68, -22, -80, -28, -112, 97, 114, -40, -68, -107, 104, -13, -49, 18, 73, 123, -45, 60, -80, 67, 0, 58, -35, -49, 37, -23, 57, -45, 84, 92, -89, -124, -43, 123, 60, -41, 5, 50, -14, -50, 63, -15, -3, -114, 68, 20, -112, 68, -64, -4, 9, 126, 117, -79, -86, 87, 103, 46, 30, -44, 101, 125, 17, -42, -6, -7, 73, -121, 112, 
  -38, -76, -113, -95, -41, 98, -45, -48, 110, 56, 119, 8, 76, 38, 37, 21, 122, -115, 114, 86, -100, -22, -49, 6, 45, -67, 40, -4, 64, -67, 98, -96, 57, -109, -126, -2, -111, -9, -37, 91, 86, -113, 41, 126, 48, 124, -95, -20, 31, 65, 101, -22, 43, -110, -80, 70, 16, 41, 77, 97, 38, -100, 120, 51, -95, -89, -102, -9, -105, 92, 90, -47, -99, -83, -85, 125, -17, 4, 23, -26, -17, 93, 81, -80, -67, -8, -15, -16, 16, 69, 45, 76, -3, -31, 56, 32, 83, 22, -123, -55, -75, 28, -3, 67, 68, -46, 61, -12, 109, -121, -34, -48, -66, 69, 51, -113, 55, 114, -86, -16, -73, 81, -11, 82, 92, -53, -62, -67, 
  19, -87, -55, -122, 87, 50, -73, -75, 50, -7, 85, 13, -124, 38, -57, -72, 23, -35, 89, 32, -31, -2, -105, 100, 105, 3, 69, 64, 55, -113, 72, 31, -4, 105, 68, 113, 79, 112, -107, -12, -33, 22, 56, -24, -61, 22, 106, -15, -55, 95, -81, -89, 47, -71, -92, 116, 5, 75, 3, 115, -122, -78, 122, 83, -93, -43, -29, -56, -70, 38, 119, 62, -15, 22, 44, 43, 5, -3, 118, 41, -105, -24, -85, 46, -119, -88, 80, 34, -14, 75, 118, -63, 55, -23, 69, 101, -3, -69, 117, 49, -107, -7, 106, 47, -46, -87, 69, 116, -7, 112, 100, 64, 1, 126, 79, 97, -103, -103, 48, -89, 83, -85, 10, 73, 13, 51, -67, 62, 
  -71, -16, 116, -35, 17, 110, 72, -79, 119, -6, -85, -50, 65, 35, -126, 17, 86, -99, -24, 53, -4, 77, 14, -19, 91, -30, -32, -61, 101, 38, -37, -8, 14, -11, 87, -100, -118, 40, 118, -123, -62, -26, -56, -25, -1, 38, 92, 0, 36, -36, -100, -25, 55, 24, 107, 119, -126, 8, 41, 98, 24, -72, 51, -13, -53, 82, 118, -16, 33, 7, 2, 101, -20, 38, 73, -61, 14, -18, 8, 65, 83, -123, -14, -99, 49, 33, 101, 64, -100, -58, 64, 24, -126, -73, -112, 2, -10, -58, 95, 16, 48, 54, 100, -95, -52, 46, -72, -12, -108, -55, 90, 117, -20, -93, 51, -80, -79, -73, 71, 46, 38, -50, -7, -123, 30, -82, -6, 47, 
  93, -59, 17, -92, -24, -87, -109, -98, 95, 99, -122, -32, 114, 31, -119, -74, 49, 53, -119, -70, 58, -107, -105, -102, -81, -65, 33, 115, -54, 123, 108, -112, 61, 103, 69, -28, 117, -22, 93, 23, -66, -119, 48, 123, -88, -78, -37, 116, -81, -92, -50, -22, -103, 40, 84, 64, -33, -71, 101, -77, -79, 112, 33, 68, -98, -11, 95, 56, 24, 36, 74, -117, -36, -79, -69, 118, -77, -11, 104, 54, -93, 39, -101, -45, -126, 20, -99, 103, 8, -71, 103, -34, 26, -97, 12, -100, -93, 64, -71, -73, -33, 107, 92, 81, 103, -105, 54, 65, 77, -59, -6, -49, 58, 76, 103, -72, 115, 108, -11, 53, -68, -88, -8, -4, -124, 49, 69, 36, 
  6, 109, -41, 49, -58, 50, 10, -88, 77, 78, -105, 90, 24, -112, 64, -107, -55, -41, -26, -5, 95, 31, 126, 85, 114, -74, -7, -101, -116, 1, 108, -36, -125, -76, 21, -30, 82, -102, 61, -38, 120, -74, -100, -125, 7, -14, -99, 104, 14, -77, -43, 96, 106, 76, 7, 45, -14, 124, -69, 0, -29, 125, 62, 31, -71, -114, 34, -113, 64, 104, 79, 12, 5, 71, -64, -95, -13, 19, 97, -64, 33, -99, -98, -66, 116, -99, 114, 17, -32, -16, 52, 106, -33, -43, -105, -8, -113, 90, 108, 61, -121, 73, -102, 1, -18, -109, 69, -88, 22, -77, 55, 29, 27, 77, 88, -12, 104, 60, 42, -10, 33, -71, -30, -96, -83, 28, 77, 75, 
  -125, 57, 57, 49, 11, 47, 21, 108, -4, 70, 53, -106, 54, 47, 54, 67, -53, 57, 47, 116, 123, 99, -85, -12, 11, -12, -35, 89, -123, 79, -73, 36, 53, 92, -15, -123, -88, -41, -94, -47, 93, -72, -100, -111, -108, -104, 100, 118, 108, 90, -93, -114, -109, -88, 29, 71, -80, 92, 93, -97, 82, -73, 24, 56, 124, 52, 5, -26, 79, -117, -110, -33, 124, -54, -54, 62, -33, 14, -121, -7, -9, 40, 91, 56, -99, -106, 57, -76, 20, -77, 6, -3, 62, -73, 38, 20, 61, 124, -117, 69, 75, -112, 94, -34, 80, -20, -94, 49, 43, -28, 23, 95, -7, -103, 98, -95, 94, 97, 13, 82, 26, 111, -59, -12, 115, 121, -29, 21, 
  -59, 114, -124, 13, -84, 99, -76, 106, 24, -99, -26, 56, -34, -44, 69, 41, -30, -120, 112, 79, -79, 3, -55, -88, -113, 114, 121, 84, 124, -24, 51, -19, 14, 87, -4, 64, -45, 67, 83, -125, -109, 87, -46, 124, 12, -40, -125, 73, -5, 98, 75, -97, -66, 98, -61, -112, -56, 121, -78, 106, -18, -57, 90, -93, -57, -31, 89, 8, 113, -6, -85, -82, 124, 40, -61, -65, 55, -65, 115, 54, 98, 64, 104, 74, 7, -16, 88, -82, -55, 92, -24, -83, -50, 89, 109, -125, -26, 52, 111, -24, 25, -96, 42, -122, -87, -55, 6, 105, 22, 44, -87, -75, -80, 36, -16, 90, 115, 18, 25, -43, -87, 55, -29, 90, 104, -58, -88, 47, 
  78, 98, 40, 11, 93, -121, 115, 84, -54, -27, 75, 27, -62, 17, 3, -24, 125, -88, -115, -42, 124, 70, -95, 115, 2, -76, -101, -104, 85, -110, 34, 107, 63, 52, -9, -100, -23, -66, 56, 115, 68, 49, 41, 70, 66, -77, 74, 87, -77, -116, 87, -3, -59, 88, -63, 52, 27, 16, -115, -102, -36, 42, -120, -41, 111, 10, 51, 32, -41, -61, 41, -26, 83, -109, 47, -126, 32, 50, -119, 54, 66, -116, -20, 87, 102, -90, -47, 95, 32, 20, -65, 48, 76, -39, 101, -8, -6, -93, 121, -86, 20, -13, 81, -38, 17, -69, 59, -22, 10, 35, 21, -115, -22, -124, -34, 56, -21, -11, 17, 47, -69, -71, -118, 107, 17, -93, 26, 44, 
  50, 7, -105, -36, -90, -23, -7, -88, -21, 101, 20, -81, 117, 99, 9, 60, -64, 61, -104, -19, 91, -50, -21, 37, 48, -33, 52, 85, 11, 4, -92, 101, 10, 110, 40, 126, -71, 30, 106, 95, -29, -49, -83, -96, 122, 70, 75, -23, 38, 19, -49, 16, -95, 34, 13, -95, 50, -44, -95, -1, 120, -14, -22, 9, -91, 10, -49, 67, -97, -78, -54, 59, -51, -57, -60, -62, -60, 121, -100, 78, -110, 95, -58, 5, 82, 85, -13, 33, -23, -40, -13, 122, -31, -12, 52, 36, 9, -70, -55, -43, -53, 121, -67, 13, 80, -11, 92, -108, 116, -107, -83, -64, 125, -30, -16, -43, -1, 120, 35, 80, -59, 61, -114, -4, -61, -42, 94, -53, 
  -24, 84, -51, 124, -16, -119, -53, -120, -105, 57, 84, -57, 73, -122, -122, 96, -79, 1, 75, -19, -118, -78, -6, 87, -100, 82, 71, -26, 39, -113, 85, 66, 71, 58, -92, -89, -96, 100, 116, 12, -50, 40, -89, -93, 116, -22, -80, 11, -122, -21, -111, 2, 103, -29, 108, -118, 9, 13, -120, 64, -65, 38, 69, 105, -4, -76, 98, 14, -21, -25, -30, -109, 42, -11, -61, -117, -116, -82, -12, -110, -101, 59, 63, -13, 120, 43, 9, 86, -6, 119, -43, -33, 116, -94, -45, 124, 91, -109, -88, 12, -27, -27, -34, -73, 87, -80, 40, 43, 22, 22, -75, 111, -31, -115, 44, -39, -18, -96, -80, -120, -69, 37, 100, 119, -96, 55, 56, -25, 
  -67, 6, 33, -19, 8, -109, 53, 64, 114, -46, -110, -75, -120, -18, -74, 99, 56, -55, -103, 48, 100, -65, -48, 71, -1, -103, -3, 118, -121, -118, -94, -81, -101, 109, 87, -104, -69, 13, 59, -7, 75, 20, -41, -113, -61, 19, 122, -13, 116, -30, 14, 11, 3, 33, 99, 68, 50, -104, 78, 67, -106, 42, -47, -74, -98, -121, 110, -117, -4, 2, -28, 37, 1, 101, 61, 70, 75, 32, 53, 2, 15, -19, -120, 59, 120, 69, -42, 42, 47, -39, -73, 25, -21, -68, -77, 73, 62, -8, 122, -88, -71, -12, 68, 114, -101, -105, -109, 98, -22, 13, 46, -87, 80, -66, 124, -124, 8, -92, 96, -70, -40, 3, 117, 28, 4, 75, 106, 34, 
  -94, -78, 30, -125, 93, 68, -96, 94, -80, 45, 0, 11, 120, -58, -32, -98, -49, 59, -57, 85, -52, 21, -9, -17, 78, 32, 68, -81, 65, 54, -112, 73, 87, -47, -6, -111, 40, 97, -114, -54, -82, -6, 98, -126, -29, -52, -81, -1, 15, -71, -111, 14, -7, 74, -54, 96, 66, 79, -103, -42, 116, 52, -60, 88, 87, -110, -18, -11, -103, 82, -47, 57, -79, -65, -54, -115, 64, -62, -73, -9, -26, -13, 42, 79, 107, -25, 122, 60, 46, -125, -77, -70, 7, 86, -57, 67, 57, 110, 87, -25, 42, -49, -2, 76, -75, -113, 31, -109, -84, -3, -110, -18, -125, 7, -61, -89, -19, -94, -73, 12, -14, 25, -38, 111, 125, 74, 83, 116, 
  -55, 11, -117, 87, 116, 52, -123, -12, 7, -15, -112, 70, 68, -28, 93, 46, 97, 87, -65, 7, -59, 37, -89, 32, -118, 0, 120, -42, 32, -114, 102, -109, 3, -61, 24, 9, 68, -37, 49, -35, -79, -79, -25, 27, 74, 9, 86, 50, 78, -50, 51, 2, -116, -36, 36, 48, 9, 23, -102, 91, 34, 122, -37, 75, -79, 60, -83, 86, 34, 45, 86, 94, 49, -37, 35, 87, -26, 43, -70, -19, -113, 4, -13, 91, 36, 117, 44, -15, -110, -17, -95, -116, -7, 68, 47, 117, 6, -45, -47, 83, 0, -81, -3, -12, 57, 70, -16, -46, 82, 117, -74, -74, -4, 52, 3, -39, 10, 31, 23, -86, -120, 13, 18, 66, 33, -126, 51, -63, 
  47, 20, -70, -69, -14, 96, -99, 9, 8, 83, 46, 84, 37, -126, 74, 115, 49, 8, -61, -2, 108, 41, -97, -125, 78, -52, 27, -18, -49, -15, -26, -6, 79, 99, -104, 103, -64, 50, -84, 106, 59, -57, 78, 7, 95, -36, 68, -115, -66, -62, 18, 20, -38, 17, -90, -4, -72, 9, -93, 89, 30, 20, 95, 72, -104, -95, -108, -17, 6, -18, 122, -100, 71, 77, 53, 93, -118, -20, 19, -87, -61, 77, 34, -40, 114, -65, -83, 98, -33, -114, 122, -42, -7, 113, 125, -103, 6, 118, -103, 109, 36, -21, 63, -122, 87, -87, -12, 12, -40, 75, -30, -78, -10, 36, 124, -122, 83, -71, -121, -7, -119, -107, 62, -25, 113, 30, 57, 101, 
  -118, 10, 12, -1, 95, -112, -114, 92, -29, -98, -43, 52, -107, 29, 91, -22, 113, 38, 22, -49, -61, 52, -115, 101, 66, -110, 45, 103, 75, -66, 4, -55, -84, -13, 16, -42, -84, -114, -121, 41, 117, -101, 3, -80, -95, -113, 107, -119, 68, 13, 26, -108, -28, -14, -100, 95, 92, -126, 71, 83, -45, 3, -116, -50, -119, -122, -108, -107, -40, -94, -85, 125, 2, 113, -125, 5, 54, -90, -75, 102, -86, 55, 74, 44, -7, -56, -32, -100, 5, 125, 101, 96, -81, 68, -3, 33, 117, -34, -109, 27, -122, 1, 48, 6, -53, 38, 71, 56, -97, -84, 17, -87, 72, -79, 49, 88, -55, 104, 86, -28, 5, 98, -83, 17, -85, 111, -3, 22, 
  115, -56, 15, -118, 103, -69, -32, -22, -65, 52, -23, 94, -33, -86, 126, 54, -4, -10, 19, -45, -125, -114, 72, 0, 101, -87, 62, 55, -76, 87, -99, 51, 6, -7, 31, 44, 97, 124, 109, 95, -12, 93, -44, 105, -82, 50, 34, -73, -59, 120, -15, 10, 86, 64, 27, 79, -87, -84, 55, -11, 119, -36, 20, -39, 5, 79, 0, 10, -111, -77, 99, 111, -21, -33, -66, -33, 51, -80, -87, 15, 71, 35, 112, 59, -34, 49, -61, -21, -114, -52, 41, -32, -121, 102, 47, 110, 125, -92, 72, -88, 24, 117, 105, 13, -17, -60, -46, -45, -53, -100, -28, 106, -52, -104, 22, 59, 26, -13, 51, -37, 47, 114, -99, -10, 96, 106, -32, 33, 
  71, 108, -27, 5, -82, -70, 66, -73, -65, -16, -91, 123, -31, -9, 69, 114, 91, -94, -61, 63, 41, -28, -106, -27, 1, -42, 11, -106, 100, 3, -37, -26, -116, -78, -109, -122, -83, -10, -80, 6, 84, -49, 4, 91, -72, -26, -114, 75, 96, -76, -27, 13, -117, 79, -106, 119, -48, -40, -75, 71, 12, 93, -76, -91, 96, -7, 93, 115, -89, -30, 97, -50, 25, -90, 70, 40, 126, 2, -103, 70, -7, -52, -111, 84, 0, 123, 25, 40, 95, -107, 57, -40, -24, 125, 112, -40, -101, 110, 2, -67, 99, 31, -113, -51, -3, -55, 1, 110, -70, 16, -90, -32, 68, -120, 83, 58, 61, 62, 89, -41, -18, -60, -27, 12, 83, -61, -83, -62, 
  111, 74, -81, -8, 2, 23, 55, -11, 17, -21, 44, -52, 8, 118, 34, -77, 50, 95, 3, 60, -50, 117, 123, 78, -123, 84, 11, -57, 47, -4, -20, -35, -47, 17, -86, -108, 100, -26, -6, 21, 93, -90, 101, 72, 77, 79, 41, -46, 109, 112, -5, 113, -38, -118, 48, -109, 36, -117, -88, -4, -24, -62, -67, -68, 43, 12, 84, -28, -54, 40, -107, -15, 23, 5, 92, 46, 50, 60, 105, 42, -51, -62, 120, -69, -109, 56, 41, 93, 57, -121, 56, -117, 79, 106, 85, 79, 5, 88, -112, 109, -116, 3, 89, 46, -23, -118, -32, -60, -65, 124, 4, -116, -1, -57, -50, -41, -79, -86, 64, -123, 60, -112, 47, 99, -38, -22, -34, -20, 
  89, -33, -106, 125, 103, 9, -73, -78, 84, 11, 53, 75, 18, -62, -56, 69, 20, 44, -27, -83, 118, -66, 11, -71, 81, -46, -27, 106, -50, -19, -11, 17, -86, -12, 102, -32, -78, -14, 50, -66, -21, -26, -8, -88, -84, -98, -83, 67, -54, -112, 85, -75, 125, 118, 71, 85, -51, -22, -103, 98, 106, -105, 33, -9, -42, 40, 101, 51, 58, -58, -110, 98, -1, 2, 0, 85, -74, -99, -91, 68, 83, 114, -18, 114, -1, -8, -104, 104, 25, 20, -72, 6, -104, 112, 23, 68, -114, -48, 69, -48, 83, 115, 98, 116, 100, 0, -77, -14, -16, 47, 43, 97, -64, 92, 86, 51, -21, -46, 126, -111, 103, -7, 114, -101, 1, 51, -21, -47, 
  36, 90, -24, 77, 39, 84, -28, 82, 93, 94, 79, 62, -46, -47, 13, 13, -44, 117, 123, 107, -92, -66, -26, 89, -112, 78, -89, -62, -53, 51, -26, -63, 95, -103, -46, 73, 116, -29, 67, 76, -102, -23, 100, 61, -73, -82, -120, -95, -15, 59, 45, -54, 46, 118, 103, -51, -96, -18, -59, 81, 75, -46, -59, 6, 56, -73, -6, 49, 32, 101, -15, -22, 4, 93, -49, 17, -51, -42, 53, 88, 109, 7, 96, 12, 33, 40, 9, 5, 31, -75, -82, -81, 1, 70, 72, 103, 117, -111, 26, -16, 103, -51, 39, -7, 65, 42, -65, 116, 97, 24, 50, -63, -92, -66, 54, -67, 42, -31, 116, 100, -72, 4, 92, -104, 21, -26, 18, -55, 
  109, 46, 95, 22, -52, 103, -98, -15, -113, 120, 77, -88, 89, -122, 76, -14, -28, 16, 101, 53, 23, -116, -31, 68, 41, 66, 96, -2, -85, -81, -50, 72, 74, -7, 110, -14, 54, -68, 42, -20, -50, -18, 111, 32, 55, -9, 96, -83, 14, 103, -71, 61, 16, -22, -89, -5, 104, -113, 46, 68, -69, 3, 125, 46, -19, 59, -48, -61, -33, 14, 0, 74, -24, 114, -115, 13, -122, 12, 38, -77, 118, 119, 14, 121, -116, -80, -77, -71, -60, 67, 103, 94, 10, 22, -3, 12, -46, 39, -47, -6, -93, -6, 121, 29, -26, 20, 11, -81, -117, -39, -95, 105, 88, 120, -38, -51, 92, -92, -125, 65, -28, 23, -17, 77, 86, 7, 5, -68, 
  -29, 29, 6, 100, -73, -47, -32, 67, -17, -44, -55, -69, -19, 124, -102, 56, -61, 50, -40, -89, 102, 126, 64, -8, -61, -59, 44, -89, 30, 14, -58, -84, -81, 88, -112, -76, 53, 30, 5, 96, -85, 9, 64, 25, -125, -27, -106, -3, -62, -72, 53, 104, 21, 9, 61, 81, -76, -23, 68, -41, -52, 42, -91, 29, 107, -6, 95, -45, -106, 65, -3, 37, -61, 13, -123, -17, -100, 82, -87, -113, 120, 106, -111, -55, 97, 3, -33, 10, -18, 48, 63, -107, -52, -93, -51, -34, 17, -6, 89, 114, 82, 7, -22, -116, 122, 122, -102, 111, -75, 7, 123, -11, 10, 32, -100, 23, 62, 106, -68, 34, -69, 108, 105, -85, -45, 30, -60, 7, 
  39, -47, 4, 42, -95, -119, 114, -23, -123, -1, 29, 120, 4, 62, 37, 100, -98, -112, 84, -70, -65, 17, 108, -6, -69, 98, 43, 79, -94, -116, 117, 22, -27, -123, -66, 66, -111, -69, -100, -113, 37, 87, -115, -53, -121, 121, 120, -125, 48, -26, 43, 41, -83, 87, 77, 27, -25, -116, -105, -31, -20, -119, -61, -19, 43, -118, 0, -39, 21, 49, 102, 51, -77, -116, 11, -109, -71, -2, -67, -28, 58, -84, 8, -23, -83, -99, 97, 75, 18, 53, 96, 109, 95, -114, -29, 64, -16, 49, 65, 109, -77, -66, 69, -77, 93, 91, 52, 104, -8, -30, 114, 100, 63, -120, -23, -9, 103, 99, -84, -31, -89, 51, 120, 47, -63, -50, 10, 62, 
  2, 33, -96, -113, -50, -21, 18, -70, 53, -106, -42, 11, -20, -56, 76, -25, 75, -120, -39, -91, -61, -72, -119, -49, 3, -96, -14, -86, -37, -33, -41, 60, -24, -113, -88, 6, -85, -87, -68, 48, 121, -125, -8, 122, -83, -89, -19, 101, -65, 16, 73, 93, -25, 28, -101, -126, 115, 39, 28, 62, -87, 8, 20, -81, 31, -103, 9, -94, -24, 89, 27, -102, 59, -117, -100, 31, 11, -25, 8, -50, -9, -10, 9, 60, 27, -83, 1, 22, 37, 67, -42, 85, 80, 107, -124, -25, 89, -35, -58, 12, 65, 104, 5, -92, 9, -29, 66, -6, 123, 99, 88, 75, -112, -99, -75, 69, -121, 13, -18, -100, -33, -92, -62, -72, -34, 85, -57, 36, 
  -105, 83, 49, 110, -28, -103, 38, -63, 81, 120, -101, -19, -16, 84, -113, -22, 16, 52, -47, 57, -68, -41, -54, -63, 7, 37, -14, -42, 124, -36, -22, -42, 76, -87, 1, 63, -126, -20, -70, -104, -17, 83, -85, -16, -56, -14, -125, -6, 84, -12, 45, 39, -74, -56, -97, 43, 120, 30, 105, -80, 70, 25, 40, -59, -76, 4, -50, 63, 85, 10, -45, -87, 68, -37, 73, -61, 72, -14, -69, -88, 86, 50, 78, -5, -56, 41, 10, 122, 74, 66, -9, -27, -60, -23, 93, 118, 48, 54, 82, 40, -98, -61, 72, -51, -23, -8, -28, 58, 39, 40, 106, 57, 115, 0, 83, -81, -120, -116, 55, 3, -111, 120, 82, 41, 111, 11, -54, 34, 
  -93, -49, 49, 2, 61, 26, 86, -9, 58, 13, -103, 79, -12, -5, 25, 94, -39, -109, -79, -120, -65, 34, 27, 63, -61, 3, 107, 51, 64, -74, -96, -121, 113, -123, -65, 34, -89, 114, -61, 65, -55, -1, 28, -120, 91, 72, -126, 43, -85, -1, 17, -70, 52, 68, 119, -11, 100, 24, -15, 47, 88, 52, -80, -11, 116, -25, 114, -113, -37, -105, -84, -60, -50, -76, -27, 113, 24, 100, 96, -55, -40, -63, 99, 80, 117, -71, 34, -66, -95, 6, 72, -82, 61, -33, 30, -101, 93, 9, -98, 105, -18, 72, -13, 97, -108, -13, -76, 92, -67, 87, 74, -56, 96, -1, -110, -41, -106, 119, 41, 121, 94, -7, 56, 104, 52, 71, 102, -91, 
  -121, -12, 89, 80, -79, 67, -18, 16, 28, 1, 50, 65, -17, 16, 54, -36, -32, 88, -40, 107, 110, -30, 86, -65, 16, -75, 67, 109, -74, -69, -120, 75, 9, 55, -28, 104, -109, -14, 92, -69, -123, -18, 40, 103, -64, -89, 55, 107, -30, -70, 46, -100, 101, 63, 10, 58, -29, 82, 28, -4, -109, 99, -6, 91, -118, 66, 101, -115, 32, 63, 103, -48, 106, 50, -77, -125, 8, 20, -37, 119, -47, -32, -25, 0, -104, 76, 33, -28, -72, -124, -106, 125, 36, -79, -50, 109, -104, 30, 42, -58, -47, 2, 118, 86, 103, -99, 118, -23, -47, 74, -13, -110, 55, 10, 70, 26, -104, -53, 96, 73, 45, -51, 20, -72, -68, -79, -113, -17, 
  -22, 37, 122, 51, 110, 53, -108, -41, -51, -66, -122, -48, 118, -82, 62, 31, 24, -99, 14, -101, 111, -58, 59, -93, -106, 109, 31, -15, -87, 98, -19, -100, 96, -45, -77, -116, -93, -48, -6, 46, 92, 52, -51, -79, 6, -106, -78, -57, -119, 20, 50, 36, -91, 107, -97, 43, -71, 52, -22, 67, -35, -12, 36, -16, -121, -44, 104, -5, 69, 9, 30, -13, -67, -39, 10, -95, 82, -71, 33, 17, -40, -95, 77, -121, -49, -48, 6, 21, -32, 86, -32, 19, 119, -45, -100, 29, -112, -23, 116, 7, -3, 86, -123, 73, -41, 88, 120, -27, -47, 14, -8, -105, 97, 89, 108, 87, 123, -73, 14, 65, 75, -43, 103, 24, -8, -1, -75, 104, 
  108, 109, -96, 44, -91, 53, -68, 52, 7, -96, -98, 55, -124, -115, -89, 70, 61, 9, -54, 22, -106, 63, 42, -42, -74, 58, -36, 70, 27, -81, 16, 78, 19, -79, 116, -102, -81, -100, -72, 83, -51, -29, -9, 13, -7, -88, 10, -13, 117, -90, 38, -29, 4, -37, 35, 25, -66, -123, -91, -103, 80, 58, -17, -92, 18, -11, -9, 81, -72, 120, 28, -119, 43, -95, 49, 47, 30, -85, 58, -3, -50, 38, -41, 117, 82, 120, 43, 51, -114, 99, 49, 40, 24, -41, -113, -33, 109, -87, -108, -124, -94, -12, -14, 14, -55, -27, 104, -47, 116, -115, 108, -82, 114, -24, -74, -110, -122, -59, 94, 69, -27, 88, -60, -113, 70, 46, 70, 21, 
  -102, 115, -43, -48, -16, 30, 39, -16, -45, 66, -16, -122, -9, -29, -95, 82, 51, 108, -32, -23, -45, 122, 10, -71, -87, -7, 45, -10, -5, -97, -35, -47, 14, 79, -69, 80, -83, -118, 26, 4, -30, 66, -76, -100, 30, -8, 2, 12, 70, 116, 0, -100, -57, -87, 106, -68, 117, 91, 119, 99, -75, -108, -87, 103, -52, 3, -84, 14, 83, 10, -79, 12, -48, 57, 2, -23, -51, 106, 70, 84, 118, 73, 19, -67, 68, -113, -87, 89, -34, 70, -75, 44, -56, 44, -118, 97, 69, -82, -38, 80, -9, -92, -74, -62, -80, 47, 53, 102, 68, 32, -98, -8, -18, 49, 44, -37, -12, 108, 36, -68, -75, -109, -86, 124, -81, -51, -54, -16, 
  98, 76, 57, 50, -52, 50, 111, 118, -40, -95, 93, 18, 89, 125, -80, 74, 55, -23, -75, -58, -105, 117, -89, -113, -53, -50, -91, 7, -58, 102, -41, -86, -79, -91, 62, 44, 24, 49, 120, 30, 41, 29, -9, 73, 50, -51, -94, 102, -37, -34, 86, -72, 68, -64, 50, 13, -19, -34, 10, 3, -90, -37, -118, -83, 97, 59, 70, 94, 29, 11, -2, -72, -103, -10, 9, -38, -58, 50, -69, 1, -50, 112, 41, -39, -119, -23, 18, 17, -106, -30, -66, 28, -107, 21, -22, 124, 82, -8, 75, -105, 72, 4, -5, 67, 105, -66, 35, 53, -18, -78, 53, -29, 57, 76, 47, 60, 8, -29, 46, 33, -113, -112, 66, 98, 24, -4, 88, 108, 
  -37, 0, -38, -116, 31, -65, -24, -84, 95, 100, -98, 124, 8, -76, -61, 116, -42, 23, 41, -63, -81, -25, -117, -77, 60, -90, 24, -53, 19, -21, 69, -95, 38, 118, 28, -120, -96, -43, -47, 121, -88, 57, 119, 26, -79, -32, 111, -38, 11, -67, 63, -60, -91, 110, 59, -6, 114, -13, 89, 103, -122, -8, -21, 120, -121, 24, 9, -75, -23, 75, -43, 43, 77, -104, -123, -103, -85, -60, -21, -1, -3, 63, 8, -72, 33, -125, 52, -114, 47, 124, 33, -12, -97, -93, 46, 28, -59, -126, -57, 126, -30, -55, -36, -58, 6, -8, -49, -35, -68, 48, -27, -73, 55, -121, -33, 7, -27, 38, 62, 61, -103, -38, -88, -122, 32, 8, -27, 24, 
  -115, -34, -38, 32, -102, -108, -18, 123, 2, -11, 116, -10, -36, -39, 52, 49, 21, 119, 45, -27, 42, -14, -13, 114, -59, 119, 34, -94, 113, -122, -94, 72, 106, 120, 71, 123, -91, -13, 27, 95, -105, -42, -115, 4, -15, -34, -87, 90, -89, 83, 46, 78, -74, -45, 34, -121, -41, -98, 121, -76, 89, 48, -28, -42, 20, 98, 66, 102, -6, 100, 63, -23, 33, 39, -43, 35, 16, -34, 87, -81, -118, -69, -35, 108, 99, -30, -16, -89, -90, 30, -118, 19, -54, -24, -109, -104, -100, -60, -90, -7, 106, -101, 1, 65, -25, -95, -106, -40, 76, 87, 79, 59, 104, 36, -109, -88, -117, 15, 60, -79, -12, -102, -20, 99, -24, -74, 106, -83, 
  -78, -100, -70, -9, -36, 2, 71, -40, -78, 65, -98, 28, -40, -74, 102, -106, 68, 54, -123, 108, 55, 20, 19, -125, 7, 21, -31, 5, 106, 116, -120, 31, 87, -21, 57, -102, -47, -58, 103, 66, -94, 105, -51, 8, 12, 30, -15, -36, -24, -53, 122, -71, 83, 121, -26, -114, -41, 25, 52, -126, -104, -96, 65, 90, -62, -69, -25, -106, -120, -66, -99, 35, -93, 49, -44, -19, -1, -23, 101, -91, -114, 65, 111, 1, 19, -63, -96, -64, -99, 72, 27, -55, 0, 34, 56, 105, 29, -55, 94, 105, 48, -109, -8, -54, -24, 1, -87, 17, 39, 110, 78, -124, 66, 47, -101, 111, 51, -102, 75, 119, 43, -98, 68, -24, -85, 59, 14, 96, 
  44, 25, -95, 61, -120, -31, 30, 62, 86, 71, -72, 57, -64, 29, 16, -64, -94, -36, -49, -52, 33, 21, 64, -108, 111, -30, -75, -84, 32, -38, 116, -11, 50, -103, -71, -101, -80, 90, 56, 44, -107, -99, -79, -48, -108, 93, 11, -46, -123, -13, 2, 105, 55, 96, 26, 12, 98, 103, -64, -116, 47, -50, -66, -123, 92, 33, 75, -20, -70, -113, -58, -6, 122, -69, -100, 21, 99, 24, -125, -113, 116, -44, 105, -55, 88, 50, -93, -61, 113, -94, 68, -49, 122, -49, -102, 77, -49, -62, 88, -81, -86, 100, -12, -123, 100, 65, -73, -47, 31, 0, 2, -16, -42, -90, -87, 52, 26, 126, 23, -59, 37, 43, -85, -106, 15, 51, 87, -54, 
  56, 52, 63, -99, -29, 54, -30, 114, -85, 77, 107, 78, 90, -2, -59, 43, 65, 77, 1, -102, -61, -32, -8, 78, -62, 11, 4, -23, -106, 82, -68, 83, -14, -23, 88, -73, 121, -23, -122, 80, -44, -13, 43, -94, -33, -69, 69, -110, 19, -106, -41, -46, -25, 31, -121, 14, 102, -103, -93, -60, 109, 11, 122, 26, 12, -81, -70, 111, -91, -34, -94, 96, -24, 83, 109, 107, -108, 122, 96, -72, -40, 103, -74, -39, 74, 45, 34, 126, 32, -90, -84, 64, -119, -23, 4, -65, 56, -6, -99, -11, -64, -8, -16, 72, 6, 112, 55, 41, 106, -75, 44, -109, 81, 69, 90, -28, 124, 42, 82, 118, -2, 82, 111, 2, -117, -99, 18, -22, 
  -10, -48, -46, -53, 56, 109, -108, -79, 110, 104, -79, 52, -71, -93, -71, -112, -70, -91, -103, 93, -50, 86, 74, -10, 101, -86, 109, 41, -13, -58, 47, 124, -8, 16, 102, 71, -125, 26, 22, -72, 59, 39, -60, -75, -13, 27, -100, -113, -113, 84, 20, -77, -30, -46, -2, 61, 8, 23, -83, 97, -52, -114, -76, -125, 104, -57, -17, -67, -3, -90, 76, -5, -70, -78, 73, 18, 101, 106, -53, -46, -46, -42, -40, 97, 37, 96, -32, 125, -119, 25, 82, 48, 92, -17, -81, 106, -50, -105, -37, 92, -53, -72, 52, 70, -83, -48, -115, -99, 62, -117, -80, 22, 71, -69, 20, -1, -23, 64, -64, 120, -79, 10, 37, -3, 109, -116, -18, -46, 
  -6, -93, -32, -89, -16, 85, 64, -113, 118, -112, -36, 104, 73, 21, -67, 45, 26, 121, -89, 66, 51, 49, 45, 60, 31, -124, 20, 52, -94, -97, 65, 114, 17, -125, 40, -43, -118, -18, -70, 15, -34, 86, -31, -47, -112, 86, 24, 39, 47, 80, 65, 44, 46, -8, -3, 24, 61, 77, -75, -19, 49, -94, -50, 22, -12, 23, 89, -70, 15, 113, 103, 80, -19, 1, 101, 25, -18, -45, 112, -94, -110, -66, -104, -116, -124, -38, 25, -101, 82, -119, -124, 98, -31, 83, -29, 114, 61, 98, -108, -117, 82, -51, 19, -104, 67, -81, 42, -81, 75, -111, -70, 63, -55, 74, -122, 51, -24, -54, -1, -11, 70, 3, -115, 99, -71, -23, 54, -61, 
  120, 64, -124, 54, 12, -44, 56, 42, -38, -111, 75, -90, -104, 64, -66, 53, -51, 66, 83, -14, 98, -93, 88, 50, 95, 118, -94, -110, -85, 119, 75, -15, -108, -15, 4, -35, -123, -101, -31, -26, -61, -4, -26, 27, 55, -49, 3, -65, 27, 63, -58, -83, -47, 91, -102, -101, 48, -89, -73, -97, -75, 33, 66, -106, -69, 22, -17, -82, -118, -123, 77, -103, 99, 117, -3, 39, 114, 105, -68, 54, 10, 101, -110, 9, -122, 1, 96, -34, 121, -28, -94, 117, 70, -69, 51, 42, -44, 20, -43, -25, 41, 59, 53, 60, 93, 7, 110, 103, -74, 84, 110, 77, -50, 26, 105, 74, 21, -125, 2, -52, -17, -48, -80, -17, 122, -85, 120, 126, 
  -40, -39, 62, -85, 84, -41, 93, -19, -57, 93, -104, 50, 4, -90, -113, 60, -54, 66, -117, -53, 91, -125, -25, -111, -98, 27, 61, 79, -49, -115, -22, -51, 82, -122, 0, 17, 3, 97, 8, -3, 125, 120, 108, -37, -55, -86, 8, -20, -17, 81, -13, 83, 42, -51, -10, -76, -126, 34, -92, -13, -28, -30, 35, -2, 92, 6, -47, 105, 35, -4, -58, 101, -40, 97, 97, 72, -116, 43, 2, -119, 34, -125, -59, 110, -90, -47, 76, -1, -75, -113, 9, 92, -91, -17, -38, -59, -34, 115, -100, 49, -106, 22, 9, -79, 43, -104, -32, 0, -45, -102, 74, -23, 50, 53, 96, 82, 76, 79, 78, -39, -57, -5, -83, 55, 45, 2, -100, 122, 
  -34, -101, 119, -24, 124, -67, 17, -14, -84, 71, 99, -8, 38, 39, -51, 113, 93, 59, 12, 31, 95, -60, 32, 22, -12, -19, 116, -112, -123, 115, -6, 47, 123, 30, 32, -21, -60, -65, -61, -60, -97, 126, -58, 36, 27, 12, 83, 18, 117, 117, 65, 66, 18, 32, 43, 60, -35, 38, -85, -15, -3, 60, 25, -29, -108, -115, 76, -56, -62, -68, 5, -74, -11, -10, 115, 28, -54, -104, 99, -112, -104, -16, 123, -115, 73, 81, 36, -34, -95, -98, 75, 44, -53, 43, 41, -102, 116, -99, 123, 121, -113, 107, 104, -56, -123, 40, -88, 74, -51, -14, -121, 40, -61, 93, -50, 97, 106, 9, 0, -90, -106, -70, -10, -88, -75, -117, -104, -101, 
  -93, 74, 120, 44, -60, -95, -7, -91, 10, 87, 87, 125, -55, -113, 37, -37, -59, 8, 76, -15, -31, -102, 56, 84, -60, -99, -125, -126, 43, -35, 33, -9, 43, 94, -15, 98, 114, 59, 84, -5, -48, -45, 106, 80, -37, -40, 29, 59, -55, 74, 107, 19, -16, 52, -25, -90, -19, 125, 31, 11, -39, 1, 64, -30, 101, -52, 55, -90, -23, 76, -123, -108, 117, 16, 0, 42, 24, 88, -126, -25, 89, -55, 15, 42, 80, -84, 62, 1, -24, 10, 102, -75, 48, 121, -47, -81, -115, -14, 117, 14, 78, -60, 40, 44, 98, -124, 10, -114, 38, -124, -1, 85, -13, -75, 29, 7, 0, -114, 40, -96, -100, 5, -15, -122, -120, -28, -108, 71, 
  38, -103, 62, 74, -18, 45, 79, -24, 18, 119, 68, 38, 97, 103, 4, 107, 103, -79, -108, -45, 110, 124, -7, -96, 28, -31, 121, 66, -55, -50, -60, -70, 76, 69, 101, 89, -81, 75, -72, -58, -11, -91, 61, 52, 14, 109, 79, -48, -52, -30, -5, -58, 104, 22, -3, 87, -28, 80, 30, 114, 70, -69, -112, -24, -10, 40, -113, -111, -13, 99, 7, 97, 60, -27, 40, 90, 5, -79, -40, 12, 104, -59, -79, -44, -81, -95, 100, 103, 105, 72, -66, -87, 15, -51, 107, 115, 60, 87, -83, -53, 9, -11, -51, 32, -113, -39, -29, -103, 70, -106, 111, 65, -14, 97, -87, 67, 16, -19, -4, 23, 75, 36, -84, -45, -38, -26, 100, -111, 
  -28, -3, 24, 105, 110, 118, 56, 48, -92, 81, 110, -41, -116, 89, -50, 77, 79, 57, -48, -8, -73, 73, -89, -99, -10, 13, -43, -62, 74, -12, 103, 40, -48, 44, 8, 18, 38, 76, -44, 72, 124, 45, -80, -74, -88, 82, -8, -86, 19, 101, -88, -104, -37, 96, 97, -35, 36, 61, -107, -28, 108, -48, 102, 93, 76, 47, 75, 92, 0, 106, -75, 72, -89, 73, 73, -16, -6, -114, -105, -35, -99, 65, 42, 23, -5, 52, -105, -71, 107, -80, -18, 106, 60, -124, 18, 22, 42, -39, 47, -32, -17, 100, 51, 50, 120, 105, 30, 53, -9, 99, -26, 10, 82, 87, 7, -12, 105, -55, 28, 64, -121, -40, -25, 18, -12, -62, 21, 25, 
  -19, -35, 47, 12, 85, -99, -22, 20, 98, -52, 76, -6, -50, -46, -54, -53, 33, -109, -55, -75, 11, -45, 42, -104, -39, -122, 30, -64, 67, -14, -71, -56, 93, 37, -83, -52, 98, -34, 67, -113, 119, -6, -76, -40, -82, 110, -48, 90, 5, -22, 45, 44, 12, 112, -3, -1, -66, 42, -24, -125, 63, 98, -17, 32, 57, 97, -57, -122, 73, -78, -79, 107, 86, -92, 91, 123, 27, 73, -103, 113, -6, 123, -65, 57, -72, -67, 108, -45, -108, -61, -17, 36, 105, 36, 3, -17, -56, 59, -110, 63, 57, -26, -43, 74, -54, 68, -57, 10, -75, -75, -100, 24, -24, 126, -67, -98, -44, -1, -38, -74, 51, 57, 60, -31, -122, 60, -61, -89, 
  -61, -114, -26, 76, 72, 38, 32, -67, -13, -82, -44, -65, -8, -40, 92, 108, 78, 65, -12, -29, 120, 61, 101, 41, -96, 71, 12, -112, -79, 126, 7, 15, 119, 70, -87, 60, -109, 68, 30, 16, -96, -36, 36, -68, 97, -124, 84, 58, -118, -79, -54, 85, -65, -96, -63, 113, -104, 54, 2, 5, 36, 42, 47, -60, -4, 4, 51, 111, 79, 100, -99, 72, -76, 86, 91, -93, -124, 89, 117, 76, -33, -42, -104, -49, -22, 47, -58, 39, 27, 14, 119, 51, 88, -48, 83, -4, 108, 31, 81, -117, 115, 38, 47, 7, -92, 47, 0, -92, 19, -106, -92, 99, 61, -106, 32, 115, -63, 32, -30, 67, 69, -43, 9, -74, 27, -98, 97, -58, 
  -8, 76, -22, 10, -113, -69, -52, 44, 31, -116, -11, -25, -55, 99, 109, -59, -42, -119, -5, 108, -62, 1, -45, 54, -94, -10, -95, -41, 104, 92, 95, -17, -79, 106, -88, 86, -120, 109, -25, -60, -87, -120, -38, 37, 53, 10, -45, -123, 58, 23, 43, 125, 113, -62, 117, 87, 124, 34, 21, 68, -46, -24, -16, 89, -2, -42, -105, 97, 20, -46, -116, -105, 84, 117, 95, 86, 80, -62, -99, 100, 26, -118, -63, -16, -17, -66, -5, -32, -73, -57, 32, -96, 28, 40, -9, -5, 37, -110, 46, -79, -98, -33, 43, -104, 88, 125, 62, 116, 0, -84, -36, -17, -20, 91, -104, -98, 96, 18, -58, 67, -109, 28, 24, 76, -70, -60, 58, 25, 
  -27, -104, -33, 79, -106, -1, 117, 78, 11, -117, -51, -38, 38, -63, 85, 11, 112, -71, 48, -86, -120, -89, 84, -105, 86, -96, 121, 81, -49, 104, 93, -119, -38, 39, -66, 121, 112, -23, 77, -76, -90, -24, -29, 67, -40, -56, 37, -117, -71, -63, -67, -9, 86, -32, 23, 41, 94, 122, -33, -82, -120, 69, 11, -47, 29, -81, 82, 2, -49, 3, 43, 8, -121, 64, 99, 85, 49, -76, 67, -60, 78, 49, 124, 34, -16, -35, -59, 25, 6, -116, -89, 54, 106, 3, 33, 36, -5, 98, 47, 19, -113, -39, 71, -33, -121, -85, -17, 4, -10, 70, -58, -47, 48, 72, 35, -39, 39, 68, -81, 53, 3, -58, 123, -4, -29, -89, -118, 13, 
  -20, 51, -115, 30, 2, 24, 103, -20, 11, -8, -31, -77, -56, 15, 103, -72, -15, 39, -7, -27, -122, 22, 119, 124, 124, -117, -72, 59, 110, 28, 59, 62, -94, -111, -85, -49, 55, -90, -89, -99, 47, -6, -97, 0, 95, 42, 53, -17, 75, 35, -13, -52, -23, 11, 26, -65, -84, -11, -48, 34, 119, 27, 5, 59, 61, -2, 2, -7, -50, 62, 75, 43, -5, -66, 77, -92, 117, -113, -67, -43, 72, 10, -35, 0, -61, -44, -46, 13, -30, 15, 63, 88, -45, 35, 98, 58, -28, 21, 29, 113, -25, -10, -14, 112, 124, 63, -15, 20, 95, -92, 66, -123, -92, 72, -111, -79, -73, 57, 73, -86, 73, 2, -26, 25, 56, 96, 98, 124, 
  -98, 78, 126, 122, -72, -12, -70, 87, 0, 51, 26, 17, -48, 55, -63, 22, 26, 44, -40, -106, -105, -113, 20, 14, 95, 33, -118, -63, 22, -4, -92, -7, -19, -67, -104, 45, -61, 111, -49, -68, 34, -98, 94, -73, 16, -7, -56, -79, -15, -26, -60, 55, 47, 24, 124, 81, -35, -47, -23, -46, 49, 14, 86, -117, 7, -55, -18, -45, 45, 53, -100, -59, 125, 46, 11, 41, -43, 30, 34, 93, -62, -63, 87, 6, 99, 30, 63, -102, 102, -70, -107, -92, -91, 8, -1, 90, -91, -91, -124, -115, 123, -53, -64, -9, -3, -59, 124, -55, -13, 90, -30, -93, 82, 61, 29, 101, 98, -116, 0, 15, 33, 67, -70, 115, -41, 31, 11, -37, 
  1, 17, 13, 106, 90, -112, 14, -115, -1, -85, 34, 21, 39, -73, 25, 29, -79, -120, 42, 38, 2, 62, 31, -76, 56, -19, -112, 14, -113, 6, -118, -90, -45, -66, -49, -11, -103, 114, -51, 52, -110, 75, -73, -6, 20, -35, -34, 123, -81, -97, -112, 42, -31, -39, 88, 94, -8, 3, 48, -14, -22, -121, -3, -52, 15, -61, 15, -17, -120, -35, 126, -107, -113, -60, -80, 57, 81, -66, 82, -94, 64, 122, -110, 71, 117, 49, -61, -106, -122, 27, 89, -38, 52, -105, 85, -123, -109, 98, -106, 11, -89, 31, -16, 19, -8, 86, 29, 76, -32, 88, -78, -90, -115, 95, 26, -54, 32, -23, -119, -63, -113, 36, -77, -31, 77, -75, 111, 81, 
  -105, 14, -118, 4, -76, -52, -8, -71, -34, -102, 120, 117, 15, -97, 58, 66, 58, -71, -11, 75, 42, -65, 124, 114, -23, -6, -21, 48, -45, -31, 49, -57, 115, 121, -36, -24, -24, 65, -90, -21, 82, 6, -51, 87, 3, 43, -107, -60, 83, -49, -78, 118, 38, -43, -48, 85, -59, -36, -50, -27, 107, -4, 52, -4, 87, 45, 66, 116, 19, -126, -21, -107, -83, 89, 113, -93, 94, -85, -86, 63, -79, -21, -5, 78, -75, 99, -51, 99, 48, 1, -46, 113, -62, 71, -115, -110, 45, 93, -67, 62, -45, -8, -122, 81, -37, -63, 75, 104, 16, -12, -71, -14, 93, 22, -58, 103, -82, 33, 80, 8, -79, -25, 72, 115, 96, -63, -1, -27, 
  -39, -105, 77, 72, -62, 95, 52, -79, -68, 97, 90, 67, 37, -85, -101, -62, 106, 107, 101, -65, 116, 102, -74, 17, 0, -20, 108, 48, 101, -59, 24, -102, 125, 81, 80, 47, -57, -114, -89, 90, -24, -6, -30, -82, 79, 0, -67, -36, 12, -114, -33, 100, 96, 102, -112, -48, 7, 62, -4, -29, -115, 62, 53, 57, 60, 48, 90, -8, -93, -3, -5, -93, -104, -74, 2, 57, 83, -110, 10, 13, -108, -104, -111, -62, 46, 53, -82, -99, 122, 26, -40, 37, -97, 12, 24, 79, -48, 24, 12, -33, 13, 85, 12, 88, -76, 89, 44, -115, 67, 79, -100, 111, 72, 3, -39, -39, 42, -70, 83, 26, -93, -9, -115, -59, -49, 58, 8, -46, 
  119, 73, -42, -46, 56, 103, 20, -77, 46, 6, -52, -30, 67, 113, -54, 39, -8, -11, -105, -42, 99, -41, 86, -1, -100, 36, -5, 85, -12, -78, 113, 36, -29, -20, -50, -78, -48, -50, -14, -6, 28, 17, -38, 121, 77, -91, -86, 66, -113, 79, -100, -58, -24, -106, 19, 13, 36, -19, 24, 80, 82, 32, 0, 40, -124, -54, -105, 21, -64, 103, -110, -5, -48, -47, 117, 5, 40, 120, -41, 104, -73, 31, 92, 89, -79, 13, -57, 28, -79, 99, -72, 18, -119, -69, -113, 13, 67, -74, 48, -115, 30, 69, -122, 77, -95, 67, 19, 101, 102, -66, -113, 106, 92, -17, -102, 82, 7, -73, 75, -25, 1, 6, -52, -30, 100, -71, 47, -24, 
  23, 104, 105, -75, -78, -48, 84, 60, -21, 7, -101, 15, -49, -84, 16, -124, 40, 70, 96, 37, 116, 77, -8, -45, -100, -71, -125, -37, -125, -103, -71, 116, -116, -78, 16, 57, 66, -64, 42, 111, 104, -48, 11, 35, 120, 103, -25, -67, 75, 64, -15, -7, 87, 33, 120, -26, 30, -96, -12, -116, -121, -45, 69, -67, 49, -36, -91, -23, 118, 55, -109, 53, -111, 92, -88, 37, 55, 41, -12, 107, 49, 17, 85, 68, 92, 74, 78, -93, 48, 118, 20, 104, -51, 70, 104, -119, -39, -20, -96, 45, 111, 8, 41, 76, 72, -102, 66, -21, -31, -122, -81, -114, -44, 61, -80, -119, 36, -122, -2, 64, 32, 21, 1, 71, 55, 86, -83, -75, 
